{"matrix_weights1": [[-0.048811560571944836, -0.04005791055088936, 0.009388310008922512, 0.0009320943741212284, -0.020904566796266642, -0.014389768006905383, 0.014749842688309533, 0.059077836217869065, 0.035494579783373115, 0.0559434607050531, 0.057826900713494805, 0.04408221381240193, 0.0449490410752439, 0.02813918176919529, 0.013909282583860344, -0.04335379834230599, 0.05330945885126212, 0.004980393566907881, 0.0018534633545458645, -0.049799353116966025], [-0.0291860601563704, -0.05229579900533093, -0.015040067677419638, -0.02809076970539067, 0.03509063954717964, -0.05138151910644662, -0.018407571925570423, 0.02459831722552136, 0.057595377519882765, -0.05647737096656973, -0.008238085051583785, -0.04450566245483719, -0.05704445767998041, -0.011702619207059763, -0.048219084162916925, 0.039836320271583, -0.04954397466116932, -0.01460089901056831, -0.00671335300850423, 0.01701445808402481], [-0.017939954114037447, -0.021302071899341756, -0.0060356636239609915, -0.013055389255560554, 0.027505374566073628, 0.037309726066957954, 0.017299205264246303, 0.03600327235822463, -0.049913818213124544, -0.027732353776152116, -0.015939954528625976, -0.002509110137732799, 0.0277029318170012, 0.03976441148028498, -0.023279773597200158, -0.04489806931404241, -0.02723469205796207, 0.03627289687849802, -0.04325588416473587, -0.031027303316172483], [0.05720534622072, -0.01636683313140418, 0.025783743563611423, -0.016293425093928785, -0.030154614879326334, -0.043257774936315885, 0.030656392145570997, 0.0049224462013147076, -0.05795934680834239, 0.025931288684695148, 0.04599921739202883, 0.019889689177394396, -0.013619735046238823, -0.03718329550370724, -0.005512308482772908, -0.058125600005602636, 0.0482178063540399, 0.03627348354194573, 0.046903842481814104, -0.022942823137825474], [0.031368730390644355, 0.01897967649289767, 0.009586829083589352, -0.041012073170185945, 0.02133932790051207, 3.4157562794293223e-06, 0.0006495648370767385, -0.04620582577084414, 0.00663309672572222, 0.03086956133759087, 0.03887258124366693, 0.025313551847041853, 0.02539428324243761, 0.03828876557558573, 0.003155939172077843, -0.05399298650711535, -0.035122784161526414, -0.04384552087975673, -0.02293603228111764, 0.016181725628208205], [0.018545194273911977, 0.025732026860492314, 0.04459789077792921, -0.05080527358911518, -0.05534722762756335, -0.004671571465950147, 0.0005934402249617988, 0.050666392737585934, -0.004300809646848852, 0.044425144838338815, -0.000933260726415676, -0.0103585889002202, -0.00032642401790776416, 0.03631153425524651, 0.014570361790387024, 0.059670900112725654, -0.04601153510585502, -0.005261187063527266, 0.0507819732365354, -0.012020881638399017], [0.009738891950317383, 0.05415984833531505, 0.00949228542285734, -0.01890291292123814, 0.053360291194202776, -0.04818271056676115, 0.014108068082325172, 0.04665950354848724, -0.03506528186516562, -0.00904541884874885, -0.029928847786871594, -0.032084080419550846, 0.01748387966679624, 0.03625223149112163, -0.035951248508137176, 0.03900597986439705, 0.03224553171490738, -0.02149603894136459, -0.03710299077008797, 0.019904695188841595], [-0.02371946421109582, -0.040946796959144126, 0.0012217917931854933, 0.053028534132920135, 0.004926915631069321, -0.01389278833911134, 0.015114392735904208, 0.005699726140888315, -0.03549883938414872, 0.030110489645956636, 0.009871709512054532, 0.022031521886828095, 0.05045661390878735, 0.02871567172085865, 0.059287681567536, 0.05437125235581018, 0.025360440903907898, -0.00644648632112377, 0.04479114975108443, 0.03585148031293302], [-0.011491794072174499, 0.0011198167515754894, -0.011183383682805166, 0.055474809577264445, -0.017388355766061556, -0.0042188383548894684, -0.057345869355901136, 0.03518034807479873, 0.04915850110779683, -0.01194168993573631, 0.01892375598640666, -0.007183690847586129, -0.029798423087755682, 0.020216365010773455, -0.015407374206161064, -0.01326492479920627, -0.0016557500794526809, 0.033963816738321745, -0.04381133038484639, -0.05227632350285094], [-0.05850935670438785, 0.032548707960392456, 0.024431237994066424, 0.009498181905589476, -0.045332159458340356, -0.0221089391357224, -0.0338973251009259, 0.002241282231095556, -0.03332457950140224, 0.038289914715991025, 0.004469292978221357, -0.01573186947999039, 0.011102524014060611, -0.0020548354689038, -0.038010289850991086, -0.031765457846058304, -0.0041973929162258386, 0.014966255705541899, 0.03839052722046671, -0.011473570906232146], [-0.008392767159060005, 0.05706941656632811, 0.05678085794243231, 0.025479279067159917, 0.03994117507625403, -0.005272963947159189, -0.054987320268085636, -0.01212894263637887, 0.022763199141308456, 0.05092287007789309, 0.029477345367573706, -0.021062331272506014, -0.05882847509269692, -0.04896383924645284, 0.01629570809678391, -0.01743115906225756, -0.01772089600437068, -0.03521526593165984, 0.04801103471490616, 0.019512392052419534], [-0.00885268213923747, -0.014784127408793294, 0.041091568218616904, 0.044445963258849974, 0.050202404568668126, -0.038331239023548035, 0.034206531709582925, -0.013322871120030602, -0.02134482923742242, -0.05640502504625265, -0.006567670814196957, -0.03846795128223394, -0.02706826932793673, -0.04729033551330401, 0.03633345727259325, 0.014881561658295567, -0.017725343703461984, 0.051963530633269674, -0.013508678694777277, -0.025950964970272883], [-0.04823476662086862, 0.012526332947589662, 0.043936828346947, 0.0369101850032349, -0.03832401130804338, 0.003586910524935658, -0.009127777305352098, 0.03416081089971595, 0.008932601069027477, 0.01708366666929681, -0.04646458464899595, 0.019653097747182373, -0.026432635015488804, 0.052733175386478016, 0.010191724175378544, 0.004647277000938618, 0.0019423583337488403, 0.020138775492340753, 0.041566852322609274, 0.013153016736796428], [-0.0438896715764736, 0.0466195375167998, 0.030455121436083508, 0.016789018387373008, -0.0013736011580562214, -0.012439118361871246, 0.0263466561649177, 0.03499151032998909, -0.03099980112100665, 0.0401203762086417, 0.03179942752544365, -0.05357623852258021, 0.005394053329824812, -0.05909768819904924, 0.013037386737402672, -0.04575914301922997, -0.013159361771157611, -0.02065010161300127, 0.05599421997991059, -0.042156136877025886], [0.024461344353606602, -0.001837858673383795, 0.05090827646522836, 0.02374873857574459, 0.004613162736087969, 0.033905273456877986, -0.03281029280023348, -0.03926734414225518, 0.030542711967452542, 0.04670991254155129, 0.03460749939198103, -0.059853977864842055, -0.04826041876483146, -0.05401523660824827, -0.043471405001791724, -0.009041535066929039, -0.018026390674937203, 0.001508937086564661, -0.016914602482773537, -0.04528180354442596], [0.019539243908079137, 0.012911762681760877, 0.014519716921791059, -0.03972575897341579, -0.04898288967773339, 0.011186426041990476, -0.04808047204696737, -0.05178961939423126, -0.03871715848281038, 0.010864753132335194, -0.011348285653790865, 0.04316218709099558, -0.012802341739561983, -0.0557648034884465, 0.031871283689910025, -0.032695140675570875, 0.01177517869537923, -0.04356069842199958, 0.04788752400308804, 0.026939890198938825], [-0.05682442934860183, 0.02714757778752308, -0.02519042752338476, 0.011185090210278551, -0.025282717935790032, 0.02005714647924326, 0.0223822275498854, -0.058372412851434255, 0.02895379285516776, 0.056555691443153595, -0.008572299593035033, -0.04620691760270713, 0.002369010213027124, -0.05890883873407967, -0.0007289322160506745, -0.04228195840784274, 0.020510863897815645, -0.034744631196807145, 0.023367457773166293, 0.025089359783510085], [-0.003202472063718672, -0.03131639245513774, -0.03087336246113627, -0.05393380474291165, -0.014594437566973904, 0.00813570377585352, 0.03155155665142991, 0.029694843366755316, 0.002136488028926332, -0.007942941762835694, -0.004540884132169136, 0.05567549104932166, 0.01634126446095746, -0.001754683453422923, -0.03576970463133633, -0.03852253252892811, -0.04749647605864865, -0.03838866674412072, -0.04118774911906213, 0.006993348962677966], [-0.056880391994010286, -0.05453120018118898, 0.04724247124311279, 0.007579955438270452, -0.026125183413161418, 0.01688134009549891, 0.019165864622551515, -0.004388871592189483, 0.037485034702883474, 0.01592218777672407, -0.021207268216472577, 0.051461430265469676, 0.03566486818237068, 0.03890128394384602, -0.020959610776977784, -0.027711951598704643, 0.04495821264690465, 0.024614176919372406, 0.013338676548152397, -0.05549210995801581], [0.05025403042873901, 0.0068909059064828915, 0.040786449652196285, 0.0019831422758383246, -0.01709283211673583, 0.003349107113022401, -0.017783993929880976, -0.05343736980429875, 0.0047930685950774155, -0.021474834758568845, 0.006680768420831429, -0.04379334455185123, -0.0002903873575851243, 0.012230597541220009, -0.00032138550638514257, 0.03014041759476635, -0.0411749679942975, -0.011699019133141003, -0.033745344643708916, 0.05543802808570353], [0.036669520488766386, 0.04974738546185567, 0.038513525384088775, -0.01795778067635876, -0.00180317896261341, 0.029288367873491362, 0.055980064675565114, 0.003029240256630139, -0.02615620378249443, 0.050716885131757684, 0.024426406119487255, 0.019517870688438403, 0.03582832180021867, 0.007336977360626394, -0.01721442840378225, 0.044904250412219994, 0.008902003819622136, -0.058173199708999916, -0.05633250244605188, 0.03981800142801307], [0.0575990726947075, -0.027698240839857537, -0.01116701822048586, 0.025483795409473042, 0.054848001551273146, 0.010288547335750286, 0.053244934484824306, -0.012934270429998193, 0.010628329539164165, -0.0003063147167658975, 0.05811019302288711, 0.025383038646861474, -0.05776265321566009, -0.036336267425104415, 0.051496013006388675, -0.022166582782617766, -0.058846605309135346, -0.042002575359734305, -0.035143371230628814, -0.026640360425007056], [0.052002711120507694, 0.021041207466721775, -0.05512505267445716, -0.055383188792008084, -0.00031383002967694403, 0.04088947864823018, 0.01916957783120295, -0.023984094862617, -0.011707370994742176, -0.02676010206331222, 0.05598524585077999, 0.050782735789138445, -0.027052683805999386, -0.003927202463651403, -0.007839590775722867, 0.0312781308190594, -0.003120865860587155, 0.023294856804596666, -0.003707023784442367, -0.04594836416830379], [-0.04635074292411569, -0.008468477041869288, 0.02389932309287035, -0.052686246341888815, -0.04185074660868614, 0.05257241320600024, -0.03503456755312408, 0.024050399097049244, 0.0013567427268214582, 0.020994762479765627, -0.05510149865088858, -0.03792529220828563, 0.03748074856893264, 0.0018492585937107207, -0.04282781827944117, -0.041209072273816025, -0.014566298869302866, -0.018245220984243356, 0.007275466407438852, 0.037637389179053404], [-0.024005314593651628, 0.0003503018640517485, 0.0505900835045037, -0.017964599655637688, 0.023692677093069717, -0.04381177790461476, -0.034425273315764025, 0.0180999937103205, 0.037906264222522204, 0.02139234569729573, 0.006252458132602504, 0.05804633939062718, -0.008268381672842154, 0.027580639690660054, 0.003485236018119771, -0.05407821471544883, 0.04034023539037482, 0.04084475654436196, 0.008251842022496255, -0.00022106735476176264], [-0.046393998739445615, 0.018912619470065593, -0.057552030273780724, 0.020433854104379482, -0.014336016537264953, 0.046803250520660644, 0.054467450830543176, 0.05151890477253825, 0.007267794842851368, 0.026183986817043294, 0.0023441920238053346, 0.038684760225203695, -0.014599114758009778, 0.016881925542312146, -0.030476255834712265, -0.004736803697738423, 0.022952099261860575, -0.012718111252146185, -0.02901616174577648, -0.050343323859012606], [0.007839771435465461, -0.040561620181524614, 0.001992135005021755, -0.027541119773188728, -0.03973485047250536, 0.0014767138588084653, -0.035526787170902685, 0.04323449427423607, -0.005910375465030731, -0.02591437258319788, -0.023577634483783565, -0.039951795472033244, 0.05472552850820185, -0.0482786502186891, -0.0448463940111033, -0.047840819959820396, 0.04511648009381194, 0.015542266598115907, 0.01928773224344987, -0.05345721968713124], [-0.002351776796458953, 0.03731325302143025, 0.06092982656775248, 0.0010068260723195355, -0.05318809438591073, -0.007321955079789309, 0.059349007784884736, -0.052085845464890604, -0.04692067855813892, -0.04832104409864465, -0.0001285376251551764, -0.03555639163306905, 0.05506640808494349, 0.06388016144614651, -0.027060088874303098, 0.009660656605440918, 0.06234710675675806, -0.05684657837967626, -0.03760960168021725, -0.0016130305023319073], [-0.01423882431634922, 0.01714059377572154, -0.015263073273577382, 0.022583647977447614, 0.05452182842443414, 0.02568171888741432, -0.006178911871366766, 0.02251786302467125, -0.047570145222195846, 0.058681274749863885, 0.010032139414574958, 0.013071146955079448, -0.05507225214663126, 0.004929308924017568, -0.05761480132178762, 0.04433100518509211, 0.022392752090491776, -0.057330233115241144, 0.04974775581942118, -0.052705906751846165], [0.026406791520122687, -0.0027810143041348415, -0.018921105555833304, 0.022738878027036866, -0.02320201004767191, -0.009311562799007743, -0.05985520400549273, 0.05987381692878647, -0.03355987903966554, 0.055021338033422476, -0.05967727814785829, 0.04565580950129626, 0.04285712369774121, -0.00217226227593234, -0.028884982098789123, -0.05278320816775969, -0.055621686041818566, -0.013106797214144077, 0.050833591781170584, 0.014971388242687091], [-0.03410909362132019, -0.04089433141630277, -0.023988302798098476, -0.014519637773075451, 0.05235697593892876, -0.04408566244557567, -0.059839609567551286, 0.00814392686869069, 0.024276172317019576, 0.0045884181505248655, 0.025349212968170734, -0.03516088541834956, 0.021127771190905618, 0.03031255928901631, 0.009983268666337166, -0.04526097255922105, -0.04495128797979568, -0.03395712525131198, -0.05719206802508951, 0.011867207731579413], [-0.036493757724448225, -0.002056046962614575, -0.02828051605495672, -0.014159964696532185, 0.023457381834858206, -0.04421617088289215, -0.00355250564723697, 0.01377400038587593, -0.050807613062444246, 0.03452208490589858, 0.012775655154697136, -0.031066715906666147, -0.025657647031047167, -0.033588337217003925, -0.030894498693177126, 0.020852035954485187, 0.02411133530847938, -0.029761200521269102, -0.027495746873862716, 0.05349083987471619], [-0.023874100094769205, 0.030365791353334212, -0.029409368053267725, 0.03743404188557923, -0.0062799621958664524, -0.04126605370956248, 0.027802336862348207, 0.010679334245587407, 0.016114790554356273, 0.030155431846187748, -0.005940273337790379, -0.043968010829896674, -0.04356505002139463, -0.04715296829968456, -0.020819514107418165, 0.019216427967432295, 0.013177225356759024, -0.0009619001567279339, 0.02062498569443966, -0.0499616409902437], [0.012897828289172549, -0.004279377713357185, -0.05282538960260231, -0.008556098140148048, -0.014040270354363577, -0.0031442952423044114, 0.05236006296862377, -0.005425507791289665, -0.007741339414703201, -0.03178978062570014, -0.033952515814433704, -0.03265917366267859, -0.040446539701048785, 0.04102194192175644, -0.05906188361578276, -0.01261411144460752, -0.03891874668801882, 0.018966257283249254, 0.043904665875644955, 0.026386078753478162], [0.0003018979169382522, -0.0022733582912473163, -0.027160610768871333, -0.00853613153513437, 0.0016749592886307555, -0.032588498136300256, 0.03474938951145452, -0.04664841524782158, 0.056113020916980255, -0.008807024012611865, -0.02836485634007397, -0.017011868756227587, -0.05370114145951301, -0.05643100346122195, 0.011860497140586526, -0.052683833075724565, 0.004260779678139823, -0.010833509444924793, 0.039355008118715507, -0.0484269606592699], [0.05397311127588928, -0.023554872077789654, 0.043732984868407515, -0.03289016786186581, 0.005261228826374406, -0.052020102118175794, -0.014865606760307659, -0.005190629960342816, 0.03436027831969172, -0.049452134258270664, 0.054005622737525086, 0.019155530052940392, -0.009759241354447657, 0.001567903169269318, 0.006838295261931636, 0.03309914049280515, 0.009819664793420557, 0.028713020094047657, -0.017327302506822673, -0.025828684507886734], [-0.023233941245579145, -0.04603743561520358, 0.01490890641034084, 0.009256334446262084, 0.012050352000372059, 0.05853712079002105, 0.026991104762556284, 0.0007951705183525469, -0.058225475674680456, 0.002248008583786954, 0.004397308248202131, -0.012543723492163397, 0.05903593781082229, -0.011005709004008456, 0.04677236843737, 0.01655339971241883, -0.009483601163850866, -0.015411553666624934, 0.04527930702749343, 0.013890284286456112], [0.046098305180968656, -0.018956607265604216, 0.050966429052393514, -0.019028415186667272, 0.003641284245428508, -0.003929590121588706, 0.03758650020598031, -0.04961449147984129, -0.004059058977014253, -0.01597160616851624, -0.050387637997941166, -0.056783253634123225, 0.014571901185596283, -0.05652035279662152, -0.04620157864211424, 0.037754335979463795, -0.05958014433520818, 0.00641108390015114, 0.008706827903242603, -0.03389064601447959], [-0.027467040573278822, 0.05070136809156898, 0.012477795676654831, 0.012814611940414548, 0.05974361678533276, 0.02919338065700887, 0.053420341208318296, 0.0034380467512103176, -0.015341109017778446, 0.04530718068874274, 0.02243735480052628, -0.014558162873180314, -0.04400450280384746, 0.05065601970923783, -0.017846697224419318, 0.03273004785606615, 0.009857700440477108, 0.030359291306660662, 0.05967932700219206, -0.034476103606314985], [0.021179080320492226, 0.05838207025343593, 0.026820570942697845, 0.013607125743467358, -0.010599756594757566, -0.05006466184830931, -0.03502399821361012, 0.034002700198867086, -0.004064535911071582, -0.02783984201041199, -0.045073670733283826, -0.03446505393064741, -0.03440126571075484, -0.053258532910246195, 0.04469394946416368, -0.023880386274638062, 0.0033093622726806855, 0.0018157402570520903, -0.027433991180214667, 0.005711141215147676], [0.029283957204931894, -0.009978163505180724, -0.023230376480876298, 0.0177260078675902, -0.05886486993825755, -0.029429402466061294, 0.0019589134787336795, -0.03969250975413952, -0.039498869969831804, -0.05876844762119564, -0.006674045150132571, 0.015660876085431766, 0.058402666098522446, -0.040545509074837824, 0.011041937647594235, -0.05968090134673796, -0.05684258437450771, -0.05838989428208612, -0.001023924400423007, -0.035672600486877655], [0.005602676415316756, 0.020805211358632537, 0.032504766976957616, 0.05926746449621114, 0.011048444842501476, -0.0004992928860535494, 0.04362177403930043, 0.0016868636806182528, 0.03568805571614069, 0.044992277854707365, -0.017693595101067834, 0.021689886218730255, -0.017278581144211224, -0.059092254583287145, -0.024363017922509687, 0.026251525078873565, 0.02069841003874717, -0.009731094928912982, -0.014869394509578785, 0.013993240314256387], [0.0464837730622399, -0.0072628714587820225, -0.005952524294616443, 0.04910408101877691, 0.025397742121220094, -0.024158479885621465, 0.0019095604094049145, 0.009944085312237002, -0.030242477442663944, -0.05301768617811442, -0.007633850746477129, -0.024564560169711102, -0.0036282986080523522, 0.0009908428624750211, -0.0033850691313511995, -0.010687674332279271, 0.013218519462585388, -0.03414138477400836, 0.0031921389949854857, -0.005261230032614098], [-0.05715482764439515, 0.048295836366536504, -0.029334093258810794, -0.03025491445644016, -0.029183180412167744, 0.0025374815752229212, -0.01814523031691398, -0.054142076872767765, 0.0017291250707030768, -0.05834959549445632, 0.05309891149288554, -0.02166390797671929, 0.04761595614478362, -0.05324800043296001, 0.05028050331247295, -0.03480040258962139, 0.053891582140182054, -0.017856566898011027, -0.04767174027048373, -0.0575578936360995], [0.005141391126316893, 0.02397962403005662, -0.0578510165890452, -0.00669859949081778, 0.057823140415124735, 0.024254652739338533, -0.033176228870503324, 0.06036815482141937, -0.009009345815445451, 0.0467924061935895, -0.021617844371710892, 0.020445487499427782, -0.04558166984861076, -0.01569328049875067, 0.04740180768117747, -0.014953428359788955, 0.027305312515047718, -0.018632989480761728, 0.023179491120209332, 0.02430621887785184], [-0.043663680526573274, -0.004744293957911759, 0.03593631296963367, 0.04942020372091501, 0.04150750333086561, -0.0458202850613904, -0.05686214662636533, -0.01803190607499806, -0.04572795305522944, -0.030125639112456647, 0.058989839757530776, 0.03469298821033237, -0.022921929881410917, -0.025609725305716913, -0.03529286227279129, 0.04227892322710415, 0.013099261575035827, 0.013480956223876767, -0.05881963040764997, -0.020482258810098613], [-0.022036880108932583, 0.005033745512659683, 0.04534555193569313, 0.024121551021480912, -0.019216340916756256, -0.0115798813849894, 0.00758437689498045, -0.03545802606033505, -0.00907450831500579, -0.0523857879558059, -0.0453351074747006, 0.03844163475743982, -0.011685744895544217, 0.05192282755816353, 0.016783324505434075, 0.062376393068577396, 0.041987248151747814, 0.010624127269253212, 0.06166560891397096, 0.03978967815783407], [0.05654510482024665, 0.054131284218969185, -0.02441859100769132, -0.04843457022787316, 0.05654576024868876, -0.012569009978382468, 0.04123216448080885, -0.055788505184369376, 0.046490006258814574, 0.06114806867498127, 0.03598080636883319, -0.04178319995071232, 0.050483737784801926, 0.08131070025968129, 0.007327989312259737, 0.057526252096415174, -0.04569128497654563, -0.03782765339444182, 0.061226846520920204, 0.05564679411344549], [0.058045113084595396, -0.014872253299632016, -0.017633652623453688, -0.03220643808200204, 0.04440974617916717, -0.04585090232994176, 0.044037591735299524, -0.015362166481886916, -0.0229698340094503, -0.03643738296941405, -0.055585974330798704, 0.004296769515153186, -0.012360674064046975, -0.0027257670563528742, 0.006738681964100243, 0.011781879734694845, -0.025272926942789223, -0.04254934373060933, -0.030356428935441965, -0.03707800043686668], [0.04263004923912378, -0.03390195040773527, 0.03888414792722254, -0.007595477854160515, -0.01746633631213442, 0.04059281950256573, 0.03699305555051899, -0.03753635296890494, -0.02079859586330914, 0.03577300644087426, -0.04212817647939251, 0.047494525808800515, 0.049778483611855474, -0.0019805436675720788, 0.02732943431164927, -0.03437605464466617, 0.04027686659522904, 0.029706104403081964, -0.021204742818295, -0.038011033021010276], [0.04599756362447111, 0.05232777737270769, 0.01968023402915316, -0.019127033220778418, -0.05585817635627512, 0.035320429094966216, 0.035087986919629374, -0.008436541311074451, -0.008550324139641628, -0.018327827386901883, -0.018270964161365758, -0.05221994184978696, -0.001643176174007934, -0.023617821083667483, -0.010165204481473145, -0.006007588842627436, 0.05593580020107636, -0.026024100292295668, -0.003676211483737423, 0.021883183736318198], [0.02515936696306817, -0.0163619572999729, -0.037468821000784996, 0.012967745078714805, 0.021616757219067553, -0.04340149864033335, -0.017559716316271554, 0.04769613593402321, 0.012721909647870924, -0.05064423526962158, 0.01186918783880333, -0.020800905418040985, 0.03519579896790429, 0.018375444023612252, -0.010480501293414504, -0.02960861875200058, -0.033401341216595985, -0.009267739890281547, -0.04084421954341896, -0.041888326938285494], [-0.027553206684741982, -0.04547998395775405, -0.008829381165187637, 0.03146604465750063, 0.02164252215427242, 0.03056968990401185, -0.00876589935042087, -0.05221065676638144, -0.055844183552959704, -0.014224485648646324, -0.019547435882064222, 0.05127937857073651, -0.05153444501918529, -0.019290527148755905, -0.03593124584737663, -0.03255592253919507, 0.020094782914504238, -0.012916178091579732, 0.004288947828922711, -0.004640312744115723], [-0.039324085460332045, -0.029984916084235768, -0.03851590901574558, 0.026246350439677334, 0.022780419842409243, -0.0019113406756604999, 0.036535461986725006, 0.0134586608711465, 0.03162669597472773, -0.023157092523337613, -0.0603750461790311, -0.05937227176176152, 0.01899800054450738, 0.04085711195020085, 0.02844416731940817, -0.0034263846177794476, -0.03941830338615239, 0.00485516602897323, -0.03034860551364494, 0.02348880605345855], [0.013611117568078313, -0.049321078365076765, 0.039721025510137946, 0.01647044205052667, 0.04610360620085022, 0.033962172514928314, -0.002204177793617456, 0.05371974180825391, -0.03396905014953856, -0.023925505413935434, 0.04368291371849544, -0.017811676187035667, -0.010331673405518499, 0.062012241948387926, -0.008372516528042695, -0.018880120124586404, -0.028991190313787205, -0.03926267187775911, -0.019243390787906833, -0.0051736508797782165], [0.031005051140134503, -0.006167043273773182, 0.024192479204455393, 0.051776168823459735, 0.0328604868964379, -0.04920601628956719, 0.049025878550121645, 0.04141455413759801, -0.03692649895112071, -0.011195857568481118, 0.02262858037895335, -0.033366198519486176, -0.038302768896579, -0.019583672633568222, -0.012844018443469444, 0.03590343946398563, -0.04558542321197582, 0.00921241085944967, 0.038674932529881856, -0.01697944649977929], [0.04525680624984082, 0.02305750396078716, -0.028727316178500717, 0.04253930878660027, -0.009408252417088848, 0.02485622024383164, -0.018783588078514827, -0.023858582664202703, 0.006690765831111188, -0.024082359215015604, 0.01722975882470915, -0.038802800236201786, 0.0014874546466202663, -0.002680843353829984, -0.030477067961634515, -0.05767658509365905, 0.03926674082511768, 0.04907825513751436, -0.034831583776493945, -0.014395135114966364], [-0.031023554929030823, 0.04257978873736709, -0.04366104310952072, 0.00887333997734968, 0.05754698661106045, -0.011945051340155097, 0.004391196997320599, 0.020754003906935627, 0.04713796930829616, 0.030654114178974762, 0.0004109204952795768, 0.054880436555778206, -0.05180511633238519, 0.05860782692573448, 0.04919318369153927, -0.051754422599988845, -0.04859248915865215, -0.016782023906249815, 0.0252786410293853, 0.026475073906059375], [0.054908826182115254, 0.041752658768237354, -0.014670622002271032, -0.005067308254730073, 0.03327580008936809, 0.05916146145572154, 0.004545257692829351, -0.05549303846615705, 0.04632877464307801, -0.04139081677470378, 0.04910609727490893, -0.040120289318672654, 0.04204992304509244, -0.03852066850454499, 0.043043915073264445, 0.051764462555640885, -0.03289584236452806, 0.026066936036612184, -0.026860914339731083, 0.0014817303884830393], [0.042276030487627736, -0.04422132301314069, -0.053701378699630695, 0.04373435368977981, -0.05866808752965854, -0.03109931975083664, 0.011729574207743473, -0.01870694152110212, -0.055806955117384906, -0.011181440582605845, -0.046073635159978914, -0.00444322618028321, 0.04736104361064838, -0.05695420449164481, 0.04120524388820456, -0.03536284602571661, 0.0014380763221220473, 0.05884490888660358, -0.004037825189953751, 0.05950755187619611], [-0.0559892402455923, -0.017571130345930212, 0.0021999525535878564, 0.020619361001245003, 0.011686106082206703, -0.03644215204893131, -0.02761070627668961, 0.0085650068133861, 0.01803395214310377, 0.025214494061168418, -0.04593203235687293, 0.008635580037430606, 0.0017105811924411527, 0.02261502086503153, -0.05411794518864943, 0.008696571509016182, 0.028169967711960498, -0.058593933113000554, 0.04474069588846167, 0.03730181947598501], [0.056870990034797585, -0.024434408408923938, -0.005549960307990229, -0.03878211046594108, -0.02657009525810285, -0.004986899707967418, -0.03960991984369615, 0.0007018041591974856, -0.02048512436008883, 0.03559332447593658, -0.027951173129535288, -0.035056637687388675, 0.025933567136396992, 0.0336923682231296, -0.056828060194262384, 0.02114042631579961, -0.03130350211879636, 0.044032435127013624, 0.04917673678698361, -0.021579545460643213], [0.011435070348425707, 0.016888338397760525, 0.02739834117416323, -0.0157050311032195, 0.03270638671147778, 0.03384871809228348, -0.013296421735211745, -0.041206887541347874, -0.04830690083779264, 0.003418633731049423, -0.056395837337175604, -0.04353723771043576, -0.021217798955506035, -0.04907032995420217, 0.03520868302720984, -0.0595746936650203, 0.056546948922128706, 0.03636562649910065, 0.03741431539319869, 0.01727824852980361], [0.0139620972111586, 0.04997586259972398, 0.0328850520407954, -0.020359507834208552, 0.01257294648433516, 0.02599205355478267, -0.04617985732896851, 0.04938677564032665, -0.017339890265294335, 0.04922548831022959, 0.02353085752237086, 0.006388391479731241, 0.029260277524368283, -0.006315050966650721, -0.04328650668177993, 0.03288632942277386, 0.039915078898781695, -0.035337360013770316, 0.03905461191418373, 0.0021689290192311375], [-0.035034150357246475, 0.022916009491852116, -0.026725951117088937, -0.05346804389324557, 0.05254356868956064, -0.03572296262964336, -0.01770970480759154, -0.008982430784725933, -0.011553186614950571, -0.03334456169221887, -0.007575548551426112, -0.04645708253513195, 0.029660730004774757, -0.01345401801187334, 0.042409871850423705, 0.023932349302652967, 0.04610372523908997, 0.037239430412282365, -0.002993945021595416, -0.02618658246189535], [-0.0062995993845864325, 0.04008129869848321, -0.05245774218201845, 0.05628052622910465, 0.049405872468972135, -0.009695968094883977, -0.02767012345522679, -0.04230503326196951, 0.013716924128464977, 0.0007046329347155935, -0.019323627582750653, -0.041717116398926654, 0.051529722912240686, 0.024174959991650185, 0.03774501961372332, -0.028392232054426963, 0.053172538453322205, 0.03611887414884592, -0.049369081327110396, 0.0664124451415547], [0.012598885834906306, 0.038991069724115576, 0.04392528118099148, -0.007384571430870125, 0.03873014376301264, 0.031192765865998798, 0.01406486631717437, 0.007873683298371436, 0.05908776626806774, 0.04191216308600584, -0.02257029057281784, 0.011504239373381155, -0.00267564896275798, -0.006949838847588643, -0.01854515199024862, 0.03937655079591385, -0.005850610918069414, 0.06787296541643409, 0.03622891519815164, -0.0075901714637365255], [0.03209863328972139, 0.046980408771837796, 0.06385879601219076, 0.06477797940555792, 0.009456850682264633, 0.009456557458800913, -0.002368325217310213, 0.03238923117541941, -0.006990584009231275, -0.0021318049887251718, 0.008834925811296569, -0.030670852177417014, 0.006327770975194214, 0.10182127588582904, 0.049634906621231954, -0.03157920362376516, 0.030325936287749752, -0.019990168462241435, -0.02688378517462257, 0.018968943172509706], [0.07194793596154551, -0.019159503269174222, 0.01119326021410401, 0.03583415898885789, -0.033135437321622795, 0.04077528272949646, 0.05800901216035719, 0.041482113137388456, 0.06587193531123343, 0.06378021424281588, -0.024575318989710965, -0.05107448927844869, 0.0007757405509841765, 0.0139136814656874, -0.010605511105248707, -0.0046744781878813105, 0.052688304588039095, 0.012456817123829792, 0.010599250787068916, -0.025126833151417966], [-0.011964464630118486, 0.004160920302035322, -0.021995541865505387, 0.0608007067394494, -0.016661858973586907, 0.03004692906209129, 0.04286863732036437, 0.03012341298241352, 0.03764906863395501, -0.0027882271725060306, -0.033288921333402104, -0.053048822119538395, -0.005670387344523123, -0.045561031486734155, 0.03665800007415868, 0.05951246094014948, -0.006669065867613095, 0.04544708615209809, 0.06643206235524693, -0.05319084152549834], [-0.03376723737876827, -0.10017409822093956, 0.07471104245970427, -0.007911885857564228, 0.04950823113469094, -0.02640419772704613, 0.04956693992822523, 0.06707711640808332, 0.03769384787767063, 0.010391980778582308, -0.04873579985921623, -0.0419774766692498, 0.01698622180561547, -0.10521964372500381, -0.059846566468455646, 0.030784409408350515, -0.01599191719742132, -0.027991247062398666, 0.0586060783579911, -0.019087316547461805], [0.00450992842866363, -0.023746324451909013, 0.0720888543171934, 0.014649610704713266, 0.019449148270863623, 0.021045770489906822, 0.059819387452169075, 0.028902721358613125, -0.03186473127575998, -0.03175864368579695, 0.062275650033033446, 0.035169241009533184, 0.0025272143162088415, -0.19432904622753674, -0.003993520100417395, -0.003942352886950507, 0.03011382787010457, -0.033117894549748346, -0.03988511044367221, 0.05509193232704647], [0.06731395109610787, 0.003545101044767757, -0.03381028665807511, -0.030963596878810107, 0.014451628229436542, 0.01752919690917295, 0.06322862006196683, 0.0031472141804775424, -0.01702975571963491, 0.0008420609867124465, -0.011873189992264256, 0.014051573007956937, 0.007464704890539811, -0.3114146776947094, -0.06178450298078547, 0.061944158773616, 0.008940963009252251, -0.057256866334067555, 0.05991415812467367, 0.02702834761126109], [-0.034912327289778805, -0.046696276623652624, -0.023819440611669483, -0.042028926055467014, 0.033062046847904016, 0.028334163234032313, -0.041118692731125665, -0.05039203559725824, -0.04983491572749156, -0.023370767723542976, 0.027805943858794605, -0.04709201418797526, -0.052163153433532096, -0.3801887873334572, -0.020870611091169434, -0.05850438272605621, -0.047615445376776054, 0.057607277386930424, 0.010846169482110323, 0.0071166978754242495], [-0.05094627997058878, -0.003999009730664821, -0.020699107149650602, -0.007712869597824195, -0.07241275084356597, -0.06690257490993431, -0.0430615584954669, -0.05363079933461638, -0.03468182089940286, -0.056898955028957164, 0.030714216203521584, 0.05102740213741581, -0.026862254694975055, -0.19911164466395562, 0.007791471935160647, -0.04049534875097763, 0.04309010430187668, -0.03500743727230176, 0.01320475950491244, 0.029981672579096365], [-0.053691849814644574, 0.018862354241539255, -0.0568289535911278, 0.03537314027202163, 0.008505240778414828, -0.009242783378076753, -0.05432158057147581, 0.03188913633143691, -0.010245872769824298, -0.0063297632718685186, 0.013594586670339255, 0.028039599282648146, 0.03576846018127585, -0.24733001294856963, -0.04932025269366854, -0.035273763728841875, 0.06318715476107306, 0.0012008096889975413, 0.01785832693034597, 0.032819697239767784], [-0.019556098584653885, -0.05431666230876883, -0.06809679682209568, -0.04431689674467329, 0.023748440452272094, -0.009092305282686904, -0.038081506567503864, -0.010547390109751061, 0.011293469089958586, 0.03764992343051374, 0.030924596523108416, -0.007730479302894474, -0.0336552884370782, -0.10437879813428305, 0.03185287093358067, -0.029588608673156845, 0.008313354330839401, -0.05955820314374657, -0.049072712578610796, -0.03255492605532356], [0.04411060999407819, 0.007400644529052107, -0.03448604754781704, -0.05392889978417876, 0.016826830223155745, -0.059974623331761956, 0.018832227634428697, -0.05334941048133679, 0.05670224837056447, -0.002890387768344729, 0.028268449843780696, -0.03868396163852217, 0.03986201074861163, -0.024225203877183906, -0.00023794414638354856, -0.03161130707205724, -0.014326849575446656, 0.056129171658438094, 0.0031650101195941603, -0.01415020742407754], [0.026757419718926156, -0.02257520470024697, -0.05722142366288258, 0.0082782160157912, -0.02183908248411239, 0.03737901029825159, 0.05470210342684749, 0.0271819039828747, -0.05330349083356907, -0.011572004846982368, 0.015371852182722334, -0.021772889690893825, 0.03959747287085276, -0.022013055561501325, 0.04793397671969319, 0.03703193197016548, -0.002656029375403494, 0.045851719005324164, 0.057041917936946365, 0.026749456083780255], [0.034934778544644614, -0.058697343684080056, -0.013342096639521355, -0.0025439558948208083, -0.050193188436398875, -0.0478994660498646, 0.03907824836039507, 0.053084858995762804, -0.03408159548746474, -0.0162862296215865, -0.05680975316542686, 0.04523424962125461, -0.03885287651324406, 0.032137494019238474, 0.005615220011548389, -0.015479298161886819, 0.044869898282738845, -0.021995564072702915, -0.05449995670012113, -0.026589775418790172], [-0.00966073922883996, -0.020950530944687216, -0.04664874536693931, 0.0594376902694185, 0.03580188615278996, -0.05133395727593898, -0.016420463287149717, -0.026774352285360816, -0.05896619491303897, -0.034840286641942685, 0.04456526016402486, -0.056042783091622216, 0.019347477889291073, -0.047674036375361085, 0.025187844437989795, 0.05429793442260376, 0.018457417632801162, 0.025247590112213905, 0.044301673727507006, -0.034790113920931835], [0.052875989314630785, -0.058832937549697886, 0.025463976069034097, -0.02380316456431812, 0.026967520017345866, 0.05086132438972081, -0.040102309654572295, -0.05591215982731166, 0.03184555881794343, -0.026995320614971865, -0.034150045702378846, -0.011644717142861737, -0.03160753314880578, 0.024262074521881918, 0.02536686161141485, -0.013405592075101596, -0.05762196735772889, -0.02689096834632355, -0.042535365565346026, 0.040165747915566416], [0.043141219136449256, -0.05838622549301756, 0.023508274317247387, 0.032417379198618694, 0.01569327495752647, -0.03316790988543405, 0.027913248068097064, 0.05582515901675824, 0.020974163100072985, -0.05461056650361373, 0.03355197666718288, 0.02973670947965522, -0.059582379416123654, -0.01232417699257875, 0.016651049178384465, 0.03736935303457105, 0.026771836381912748, -0.05201303962111654, -0.0021675700911069824, 0.030394769924297918], [-0.03218306928608725, -0.0060342311459710965, 0.003246189546415092, -0.022809847745136554, 0.04113317732954356, 0.031260639157061884, -0.014231571137797595, -0.03942722993766833, -0.04750773323492753, -0.050433134191801884, -0.029490767308563395, 0.05922860272104165, -0.01570655395389077, 0.016011402673597352, 0.06464449926708914, 0.013042659917655833, -0.004274728046709607, 0.00042871360964500847, 0.025671679610524432, -0.011850372527640962], [-0.043920072319145506, 0.008157374168303885, 0.060347239949686514, 0.018336825800687073, 0.029817902629569105, 0.03757103063522251, 0.020644400584964157, -0.026304330794784715, 0.004268754816404437, -0.012554955803015773, -0.016473585097771023, 0.011177713461562063, 0.008517969962998957, 0.04331137236985949, -0.027221328729885395, -0.015690481393736366, -0.045274536801815146, -0.031237074507709493, -0.020168928150506017, 0.008088166293174246], [0.06799254185970377, 0.006069917952295845, 0.051010848410454314, 0.06121392409677881, -0.013411653450093115, 0.013716243961954864, -0.020439458361794425, 0.06420546774690106, 0.02388060530253507, 0.0371381643251113, 0.03405984302038104, 0.060722241811211844, 0.053779091006512, 0.0035703325408581402, 0.05405175965722292, -0.015965374752163655, -0.03212124624753287, 0.04581452342363135, 0.04418219907640652, -0.02973920436171321], [-0.0032515914112117325, -0.012719138335112797, 0.018284822151327217, -0.00043915130603178133, -0.007877441165086143, 0.010896240618161447, 0.005115989781030212, -0.03204399128460242, 0.03174887303619074, 0.03293458740986345, -0.022545850401259837, -0.033111624958398284, 0.06556622523695577, 0.015696424773927534, -0.000700503982635437, -0.014832032551577373, -0.006634080347302286, 0.06781945351149685, -0.04230595617814636, -0.03709161719766187], [-0.01790502538269104, -0.02712215057316465, 0.058816313033745994, 0.06678088198981719, -0.010040478008926388, -0.020734933070759295, 0.03216123369865584, -0.04288879633665243, 0.05718496217431842, 0.03490476413452236, -0.007599947946264237, 0.010937079363721482, -0.018628457734322642, -0.044301054109146094, 0.049170732239358535, 0.0228165364510607, 0.011633757176858255, -0.017201458634909354, 0.014920463623189306, -0.048039867934364947], [0.06668709675264631, -0.007981448984979505, 0.03482448876745247, 0.013637404422915625, 0.027708836185537752, 0.06963876619695507, 0.0742413819930179, 0.0788804648317056, -0.0019520123650412884, 0.055380352638724796, -0.018436668665541476, -0.020463035907652673, 0.05226538896660856, -0.03125696324755577, -0.015006371701508236, -0.03016520289807752, -0.022613271230594697, 0.02485885098509695, 0.06117122813505679, -0.021240968060109545], [0.0631070367644733, -0.028422198829129487, 0.10009629537737295, 0.07222482845526829, 0.0030159139292262, -0.006457258855009984, -0.01097455266624637, 0.049625510812853456, 0.07834820917003263, 0.0007351491893461875, 0.012278318364716769, -0.03291653174360387, -0.015153561881165567, -0.2737412131923037, -0.039514481305296716, 0.014910282403334611, -0.07540325532513141, 0.010093005825930382, -0.023415555540976393, -0.019256244295403745], [0.07929655227400839, -0.12303314407592622, 0.06599102771830062, -0.018364164680053193, 0.07482805950498325, 0.03983554861781606, 0.08013135500188484, 0.06759684182426587, 0.02257368525843596, 0.04006848236127852, 0.042672226589545524, 0.010656771803640488, -0.0032537705039453416, -0.5163504132631211, -0.09126384947856708, 0.07283572995524783, -0.01002751972355148, 0.06064346614186447, 0.02041059776686219, 0.0480014385959327], [0.042074679356812014, -0.016768189802890323, 0.04277415386471826, 0.03903040028675545, -0.006917786943804524, 0.0337773825263738, 0.06845951781637423, 0.045218793539359745, -0.031166465707803324, 0.02233352704977166, 0.04655566023363111, -0.024653188846330384, -0.024981671980917403, -0.7676228881931559, -0.07561832160043548, -0.016131905610687496, 0.006551762357455886, -0.03736009313925584, 0.02254982174602202, 0.03041270299217282], [0.05185539347254668, -0.11589649378095028, 0.011574738037090287, 0.0013450419645431677, -0.01920188432618, 0.05852910398822865, 0.02638204115323301, -0.013031078048323588, -0.015075546678552425, 0.03697169772209224, 0.040589294487520765, -0.03457552890594511, -0.018146735995350195, -0.9577061047895923, -0.12295775344703769, 0.07443895566840371, -0.004809645281964303, -0.009194037292492909, 0.04342430728664221, -0.06804534107000129], [0.03426813918270405, -0.1307333696053505, 0.06442487685019556, 0.039273750119841785, 0.06598660663847546, 0.04743216107575228, 0.02137629971747839, 0.029709674145381657, 0.03964151888570066, 0.06593842457378574, 0.04698430870644836, 0.025426974629183766, 0.019270342373634463, -0.8748829818780494, -0.1252411836617986, 0.026816983581217976, -0.07088228796830132, -0.021924642661547665, -0.026099191094484216, 0.023115458129003986], [0.06402441345998469, -0.047786667860516406, 0.000966127066989006, 0.04572438486595559, 0.03142606661478288, -0.04894188412707527, -0.02625071394465053, 0.06698925279567394, 0.006882540242427726, 0.04515375234635837, -0.06287802895013575, -0.024467176688322708, -0.0031434725418038674, -0.6518708323254974, -0.17665360212831602, 0.022516063734142465, -0.020214674192122827, 0.014564368668251379, -0.020256588913008376, 0.05155425816210495], [0.008752194699110488, -0.04848870497444939, -0.03698157999088859, 0.0034842679399106347, 0.03241125714737393, -0.024565770074980356, 0.048698672841630986, 0.006488063882567635, 0.022646526403868432, -0.025925938659982724, -0.04557145063826564, 0.06343894792032459, 0.03093885279669041, -0.3914241859572552, -0.1813756640906708, -0.031112105740948595, -0.06391717417377532, 0.015195214441305721, -0.009852425704336787, -0.06480899814347214], [0.03470008277018274, -0.06880124066888818, -0.009897383944292232, 0.04165838021707923, 0.0057206677213563276, -0.06123934069876221, -0.03831049857522797, 0.0052136310884955996, 0.04652991967112049, 0.023188401943927447, -0.01600776579915391, 0.047948108644559805, -0.034926884567067766, -0.12137581122374497, -0.0009990115993713474, -0.0004981787039102631, 0.036278668468299996, -0.03792286204969984, 0.05003806355671489, -0.052798738738634485], [-0.0428294008405894, 0.017138784785902944, 0.021551315644147678, -0.00011729627368108058, -0.0631475292092775, -0.009419086420876662, -0.011110472439003807, -0.05262644368745829, 0.04738020871991486, -0.01191234447603104, -0.018259521900528243, 0.026867405004732926, -0.027375470804491528, 0.034641879677560994, -0.04357409050388472, -0.03181957034551718, 0.05605909136837044, -0.029750271111450236, -0.024865376076216653, 0.04258438198571361], [-0.031916970003614424, -0.027616818224838857, 0.038895693003410024, -0.028473882586375215, 0.050218932930985186, 0.03680820865115094, 0.028145327792973962, 0.051593570007992896, 0.008296063982137327, -0.03769615100327152, 0.004002712332246559, -0.009227609591900129, 0.02692699935278528, -0.030508530106845802, -0.04373448456265492, -0.026076776954841004, 0.02185512121047989, -0.05803030098496812, -0.018048972872506296, -0.015808184597774614], [0.059136079211222214, -0.0582417743544076, 0.014002214815722879, 0.04649614034156074, -0.035028957109978345, -0.039924961294501446, 0.05358985798995585, 0.05035052553970643, -0.00982483789996794, -0.05743632253769342, -0.035995752173144165, 0.013758196160083867, 0.03972038619238074, 0.02323936778835903, 0.014534198470232625, 0.023806591064036226, -0.023152677992488185, -0.05255307649420959, 0.04506021907948909, -0.03432452141198394], [0.04006215434756763, -0.012589801640288738, 0.002553550354488705, 0.018087293156892892, -0.01984613251594302, 0.056058890263413715, -0.027727938409018077, -0.016666326488613395, -0.03154061140859679, 0.05557050583308487, 0.024681992229888407, 0.0017298546832460841, -0.049383878383981984, -0.024381338779527677, -0.02377194003329752, 0.03837709587327451, 0.057116521125307296, -0.05371778643533945, -0.03566942001148913, 0.018404032240066395], [0.037802833860301394, 0.012881171658913601, -0.013351174695556417, -0.01406901081656315, -0.04032544994898364, 0.015894405786620155, -0.02289964408969756, -0.05912020661712632, 0.05578256892592655, -0.014285631637918827, -0.01281110019456517, -0.013455989042572128, -0.04601727228576399, 0.02062511162283823, 0.05575107102864948, -0.059518954280358534, 0.03185356337169265, 0.05139800031744546, -0.0364732773937678, 0.05321227602296866], [-0.0036109540646879342, -0.01829159926637497, 0.01681139001934168, 0.0009499651440761747, -0.03109471622113533, -0.049176106382006826, -0.002057144574456624, 0.0361953026633294, -0.04050078421137, 0.054935879786067544, -0.05380447310451241, 0.03199746157045001, -0.04250184153697327, -0.012227187582713545, -0.0393429702451801, 0.034120358771102685, -0.00762483650675739, 0.027745415392554613, -0.038208456269020495, 0.023639231757211217], [-0.04865563426055, -0.040632783665519485, -0.012724763977191418, 0.008075049616042987, -0.013745623769998959, 0.013636533983771142, -0.04237662424773452, 0.04991072006061448, -0.03687031999212829, 0.0482691574545614, 0.001506531584186973, 0.05535065856414946, 0.04488644079691506, 0.021510423784525, -0.005077968427705786, -0.05148674187684834, -0.02009268293889757, 0.06681291679355944, 0.0307278403152232, 0.03577629675571315], [-0.014365163950468421, 0.03762349538063548, 0.025857487451568215, -0.015243019683198963, 0.05426997030514777, 0.0243121317968958, 0.03847297978002755, 0.05838321781252451, -0.02987700639068858, 0.01884108002716249, -0.019895431982719317, 0.0012201674056915484, -0.01428579594902715, 0.0925793539088892, 0.04289796391074619, 0.031603426744493235, 0.03639678826778272, -0.00334923025991574, 0.07323501049958663, 0.06166939392456503], [-0.03932207507358122, 0.055012192645052686, -0.021695306809797615, 0.026522089733424913, 0.05595453778880017, -0.053146084315119836, 0.002794178398380081, -0.014904956892241826, -0.015137599477131988, 0.047821960382184725, 0.017994926111486915, 0.06271090165902028, -0.030378823288751296, 0.14669081696559497, 0.0378068002031274, -0.04210625528560757, 0.030977316209063212, -0.009783035561591958, -0.011535678955887857, -0.03785929052006295], [0.06075347971767831, -0.045969714651406444, 0.005355025188163456, 0.042057773176799276, 0.021038772121913626, 0.02501226108188481, -0.01686274192757155, -0.033204852814373846, -0.007380254780235985, 0.030324828264949647, -0.008209432037263046, 0.05990441300620935, 0.07694089555577692, 0.025693959795580923, 0.05645499881287098, -0.0074520234086042905, -0.041486650427993696, 0.07749411975160247, -0.013926569157660985, -0.011711067975527298], [-0.002001921409065127, 0.025023229228630154, 0.06866935744984773, 0.025193972058685902, 0.0526170047100154, -0.0024906666730560734, 0.033053791064509334, 0.05596243217233423, 0.013628872142562762, 0.06886656946315199, -0.027519067760892375, 0.016701914937035222, 0.01532636729171938, 0.058286731125348365, 0.09803399156803852, 0.07080790626878154, 6.736375662022556e-07, -0.007717897969621066, 0.06470362002996506, -0.04022949882878037], [0.08050776487784334, -0.04988256833407691, 0.03009687573606832, 0.07308969999141597, 0.01839887236547451, 0.0313625865230314, 0.07221127674974913, -0.005459048947138846, -0.014760939405907189, 0.02285600880896278, -0.012066571934259201, -0.024195838580100847, 0.0077311166277248, -0.13871225580968002, -0.03768234164901641, 0.09063673738866204, 0.05653885061321579, -0.01621312629759731, 0.028451495337491545, 0.055186802799806874], [0.0927123468229459, -0.014256792967711776, 0.041195202856319925, -0.005934771398799838, 0.10457184446953482, 0.08507262459708353, 0.10651731040640208, 0.06196145585479462, 0.008260461678667052, 0.10583256362040776, 0.014302724258444074, -0.022757976560116366, 0.03870408293203267, -0.6095142802246668, -0.05449047476881422, 0.013452591348121065, -0.027431345967381428, 0.04325031376556541, 0.10689559352067743, 0.031695943213090244], [0.0033668980088396258, -0.0858313993547219, 0.08868357651749753, 0.013075832910635216, 0.03003732857690365, 0.09105788006322654, 0.042081957708350805, 0.039592732506286275, -0.0005420576642888359, -0.003098052522484896, -0.018372276759315753, 0.00023375568415851214, -0.016461655570903157, -1.15045921538856, -0.19050890979423463, 0.08149250615478876, -0.04001362568281636, 0.010742047367219386, 0.022367586842864596, -0.02383685955582271], [0.09440967437873732, -0.1046413896563197, 0.01949183679531318, -0.017166268382722772, 0.04467611218730857, 0.08637707271352517, 0.0479724253250085, -0.0286969642606998, -0.015180998964728375, 0.08767482726561562, -0.01032566771793488, -0.043515292308219655, -0.040378692959183095, -1.3802658194448625, -0.19935870475616824, 0.03743730315015247, 0.019202591157245166, -0.02270856597197364, 0.012337151289129943, -0.026716864793989166], [0.050998612512656145, -0.058889634884987684, 0.08271850056160672, 0.06988237150634503, 0.08154691610812734, 0.006972036038534521, -0.026595877849566563, 0.06254939559329559, 0.07459580840077995, -0.011276922693602306, 0.017662990772231685, -0.011530194478600096, 0.05075665125248783, -1.2534440499977066, -0.12156095786506897, 0.09575485439533479, -0.035181818658244234, 0.04530136006664184, 0.041565692224919036, 0.049302628239042544], [0.058047480795671735, -0.15279405796552545, 0.07963249342505319, 0.005435660152248288, 0.06877774025224767, 0.049682014168524184, -0.032709283704356586, 0.06726696862841383, -0.0006552204328787512, 0.0738344548546223, -0.00682400313596012, 0.0464724419463341, -0.00640481597438985, -1.197746051908557, -0.23553773119507046, 0.04361640701979677, -0.07668725285608347, -0.019180662302485718, 0.07794580010991181, -0.06368003666925767], [0.06385185674723885, -0.16874831617759534, 0.08672188067003056, 0.07505280654120651, 0.03099599128690627, 0.029534985641915885, 0.03591283228570159, 0.08036677410494919, 0.021679740337018243, 0.035032190790339326, 0.03538792150553868, 0.09935433082868861, -0.0015465069182001754, -0.9870946529286003, -0.2350515360373894, 0.06551199167080932, 0.028821158910929182, 0.026052138798394634, 0.02878693481530444, 0.018242716311151656], [0.0643036070035072, -0.12013115693373369, 0.06947807062229718, 0.057486914247409426, 0.060665210799527296, -0.0014218769748380554, 0.03601492279750027, 0.008378334495014699, -0.019073417756182574, 0.04597639297255493, 0.054568103018784835, 0.05849015916234128, -0.01615400325353253, -0.8180978710385836, -0.1972688416690618, 0.02042973183858381, -0.020481626563841972, -0.023602329574832447, 0.0911543171457651, 0.0572719087856044], [-0.03497079261433252, -0.10672418631643261, -0.019298614415092733, -0.04387792787568992, -0.0581177810346798, -0.032267868790813725, -0.008127715643999705, 0.06090053953623551, 0.005027804370013798, -0.048576946892891514, -0.04536433408728067, 0.028980975283619582, -0.047741856749856336, -0.31095652099269017, -0.11887408286441173, -0.03902503144505363, -0.032510710912310586, 0.04384419199274183, -0.0064535596925075715, -0.021170460143349917], [0.004047943380485111, -0.0031927990270380004, -0.047064434923184156, 0.05076161454478295, -0.059770825902648005, -0.045846986395242983, 0.05095846943907843, -0.005713926187207609, 0.010710248885897047, 0.022567215681643965, -0.0001314167141831542, 0.019178299445413844, -0.01594485058268893, 0.05477317826881047, 0.02855675052545188, 0.020721886117575167, 0.004221022388712085, -0.017497993349246444, -0.04278171355323443, 0.02352314074459931], [0.029751531937402213, -0.007856140627404345, 0.058013945874423, -0.04821423187839208, -0.012692648423233843, -0.0049154274892499504, 0.014293257522721, -0.03962257968737434, -0.012789694969634805, -0.026308365657380636, -0.027954142430101976, 0.002266957612395593, 0.05221928563641207, 0.025042780604536186, -0.006879823266644484, -0.008263929830472362, 0.024380236332120407, 0.025539556131914207, 0.028919048477302194, 0.022350225383905433], [0.057027276300751745, -0.04825944776751516, -0.02757887474499878, -0.03640101727832286, 0.06058823929449608, 0.02305285669619491, -0.002771893195707085, -0.034049198815025425, 0.00044228749749808784, 0.056183157075890736, 0.05980997363194818, -0.01925887578109775, -0.0541452552626316, 0.04318441928124359, 0.04927245068693314, -0.04475999239679141, 0.009114733278587533, -0.03339916969722083, -0.020729136625249507, 0.051218437331684165], [-0.040614296087836885, -0.025673043947662646, 0.0008931354803842805, -0.03674967406434133, -0.034560342589395825, -0.056867784120539236, -0.027977802467306755, -0.03131353520052052, 0.0335878089475692, -0.05642952241383794, 0.04397491996554909, 0.024897277190960132, 0.005081293175428289, 0.04174840213409235, 0.0013916713364335372, 0.018589077385053877, 0.0354708410233698, 0.006094284875755512, -0.04652480269989651, -0.0470147708875271], [-0.005016649575902721, 0.001714947495713878, -0.017862658203154358, 0.01922767323028523, -0.004129618189750135, 0.021654342991358894, 0.02390316016581775, -0.05639050951112003, 0.03403411812085048, 0.02417716210617759, 0.053480771195525155, 0.059096986288472805, 0.023796619191526862, -0.016338555007382797, 0.007385049588740675, -0.03175429845298123, 0.023810015605423722, 0.013618114028851838, -0.03697773123125242, -0.05443058010703616], [-0.019731193289360485, 0.015770854582475586, 0.04216254856853448, 0.01408145239075527, 0.028880500345872126, 0.052104311797343074, -0.05216627704357026, 0.05559956747726874, 0.010872059891093081, -0.0557057326834461, -0.002895319854573007, 0.05894590303710281, -0.011541428552122706, 0.0426193645733652, 0.0038879689416543564, 0.02237611022172118, -0.032933879155019594, -0.006299053321665293, -0.03191636588651689, -0.04300280368177376], [-0.026066833703587273, 0.06635247241616256, -0.05155709898753908, -0.042305250636722025, -0.046494524872005075, -0.014667080710006476, 0.04462600782699648, 0.04998438717493556, -0.019667400995444655, 0.05206614667370761, 0.019187384980877548, 0.02057385298792836, 0.032018007991813854, 0.08204251088304357, 0.006682692083480695, -0.027908890512687048, 0.06202391190222695, 0.012378297908573399, 0.017708962980273527, -0.026221692909574146], [0.05561886464583184, -0.0616384646925534, 0.015155591711923167, 0.021805881306479466, 0.011700574394487897, -0.053136202550214846, -0.020111795781116083, -0.02635626091215832, 0.008689056593329855, 6.323891819637094e-05, -0.004136918753616697, -0.024704770757565678, 0.001195200078328802, 0.2399295622530214, 0.043835189762591174, 0.007823601803437642, 0.06769453744688395, -0.025704230654635743, 0.03959960474966676, -0.002441527236144931], [-0.03393554489303569, -0.07600900709683908, 0.06043694421945362, -0.02099583093398235, 0.04776321424260777, -0.03981861901658568, 0.051226362551695444, 0.014507385037570297, -0.04165353636289577, 0.0526112426465233, 0.05089450145059434, 0.017630902348334164, -0.03177032985847945, 0.0430364796876629, 0.00967466654214829, -0.009508954193724252, -0.05223594773800247, -0.026351131886049674, -0.03936473895763306, 0.05846872137643965], [0.03458649682346073, -0.038798331454798905, -0.008145951949298994, -0.01633532877735556, -0.007324365753752329, 0.04452519858105882, -0.0001585080335690139, 0.016691619807298934, 0.03900273045955791, 0.060272758646532, 0.01113865794317906, 0.006380253896499734, 0.004969659255099549, 0.047045187806409046, 0.03815072073788249, 0.040524901007237026, 0.005985980114047969, 0.07726238651211281, 0.06361183331855079, -0.013393747653035516], [-0.0092363532554451, 0.049019090435743616, 0.04714608054064111, 0.04959964456192895, 0.0483974939726868, 0.06453191219976093, 0.06678768355867233, 0.028861258027585192, 0.08283910560190173, 0.059737778340826296, -0.005819750025792689, 0.04848117647346768, -0.006899508934583103, -0.09172367807016453, -0.006329133499663217, 0.049680662253979366, -0.008854768407488642, 0.04137411619175061, 0.06512836035445545, 0.004319073559956725], [-0.01013824808689604, -0.0448287128099519, 0.11249384635093142, 0.05574295389939966, 0.11662868851387932, 0.06620352280450521, 0.03170836722715517, 0.04850200767973219, -0.0028573237103550375, 0.08116208601076953, -0.022224901024983913, -0.027500640671372357, -0.03512040510284286, -0.6119404603618249, -0.07382566023541418, 0.07716331170884794, -0.030142839123241786, 0.05070677477044718, 0.048393961327143895, 0.05431883178619681], [0.06350499743314728, -0.03918850212579573, 0.04325439818851274, -0.01372967562758839, 0.083997632193046, 0.029938828316486275, 0.1116364710844348, 0.10218576969576701, 0.0003787478213527408, 0.0004720725321646183, -0.010482234217932752, 0.003544845648866055, 0.04792157148958694, -1.1154327055781625, -0.05255008576953356, 0.01464200996133208, 0.043424345149218696, -0.010776149707193337, 0.04836506411074923, 0.0094120418569303], [0.02942515988163483, 0.009607293997878791, 0.025850482766840717, 0.07470217895161348, 0.07661172141204237, 0.006896828344758835, 0.07699101731329538, 0.005225952102259428, 0.08157075620065628, 0.09500476071718218, 0.061417401495985194, -0.033182602972045235, 0.023521577922975673, -1.286776282326616, -0.09749232734351906, 0.027706551692054427, 0.08239761021675368, 0.004749338152462106, 0.07577474725365858, 0.08619124665303154], [0.0662767039203529, -0.036651175797792354, 0.11892768403356832, -0.013772262029112727, 0.1032588266517726, 0.0205332202145984, 0.07737393961048815, 0.02954619828461198, 0.006351763093309197, -0.003959729679625798, 0.03630778999148644, -0.012862488340207095, 0.01686022897336152, -1.06766372427072, -0.03691860073193289, 0.05273258843311548, -0.010004316509314756, 0.020521866568091005, 0.10074634706568779, -0.009040298301685826], [0.07355083098732132, 0.03839503397806372, 0.08224400720464058, 0.019804571346482294, 0.09822512241104184, 0.07620170583815983, 0.039573144749227726, 0.07553953024359027, 0.03978626312545516, 0.020020705247447645, 0.10470486052934035, 0.06010227979646727, 0.09865922976089592, -0.932636604749602, 0.011839137268969024, 0.07615166040646973, 0.029190426984977296, 0.016472426317297013, 0.05592596411357804, 0.0002969966431503506], [0.05318993040143302, 0.01835736855772512, 0.0965721223620478, 0.018896951032631257, 0.060275999291564374, 0.09243754335501654, 0.07866177561254262, 0.05302415529361752, 0.04280808862713718, 0.0858270207613343, 0.05587634944914434, 0.1193249033507105, 0.040613541281838604, -0.9088195489467138, -0.01421273030347295, 0.009920933623825661, -0.010414146703578897, 0.026545406814246605, 0.0018500022316509522, 0.07393729738889529], [0.0354063835234136, 0.00814044531914836, -0.004321886649046753, 0.03545776304592989, 0.001959309130047595, 0.09714435939018928, 0.1033121299286959, 0.07987154731226696, 0.055667678107847264, 0.09320702668032826, -0.008112461824563379, 0.13733457959154854, 0.06903615527953241, -1.0086355941532092, -0.0762861917762896, 0.05052194799951984, 0.04505490427618369, 0.006240262728844269, 0.02620636942564879, -0.0047886621323585225], [0.04400146175711546, -0.041405100804186204, 0.04987457947778955, 0.11071863696874924, -0.007834620891180177, 0.06085139590592455, 0.07773533988376312, 0.10303003759177777, 0.012087996494118316, 0.08953178189102531, 0.03354883832219635, 0.056068644034175365, 0.00046784938107871855, -1.2750119052511804, -0.22254474392624107, 0.07767343625294822, 0.022227391213771007, 0.03463846773580178, 0.046885642375405295, -0.00454289721716083], [0.044574006335662546, -0.14130803665050562, 0.040414348363724976, 0.08395964791787039, -0.0387502179379113, 0.04518844826363252, 0.01701103109966332, 0.027035856981495257, 0.05286026903358, 0.026602493708834083, -0.00547792561818233, 0.008876327787655963, 0.017850034877683437, -0.8468935184749106, -0.1600759101966263, 0.06930029460840995, 0.018266048255019617, 0.06822884178204182, -0.015083735668984993, 6.8789308436017e-05], [-0.016861249603333964, 0.014420047959065043, 0.05264674649932974, -0.0361435442615522, 0.0074152398373727646, -0.06543982103104948, 0.03356153183964294, 0.04686647607090736, 0.013405790654175303, -0.03429896290209072, 0.036131004370062045, -0.007959473359612772, -0.013103766510618632, 0.02933723423155152, -0.005176743784746054, 0.020656071752514778, -0.004768058190963748, 0.006433260838092834, -0.05108007833259639, 0.05084252233569792], [-0.02952134113327113, 0.04288254316594934, 0.051604141944035516, 0.039244814846757424, -0.018886579290746282, 0.0248966222436133, -0.01973793676845356, -0.04359527148593698, -0.035967443339083326, 0.030744515433110065, 0.0503347916254091, -0.005166482890332496, 0.026604623748508735, 0.049823868799200824, -0.03885363445186087, 0.06247747451058756, -0.03467413870360745, -0.05177586338090575, -0.04764318201869425, -0.03410355631134214], [0.03654123227982055, 0.06078427516570488, 0.005676815190762217, -0.03702373868385818, 0.006875957550903021, 0.027053970548655673, -0.013950039910117078, -0.021611279326696233, 0.06329164219820402, -0.018757663829632943, 0.005569798410448877, -0.014552317399126592, 0.0026286826289317316, 0.041519775016094516, 0.06276361520244672, 0.06198536102186927, 0.04086374275710957, 0.005532472201018418, -0.01529199251510825, 0.012011017029798161], [-0.024045305924181404, -0.054371792565660666, -0.04599861237504552, -0.051446637120487373, 0.024151333729239957, -0.036130652648924025, -0.03483898847278007, 0.04932337278986238, 0.019506606298467146, -0.04604623850040115, 0.015922510867379572, -0.05173410673613978, 0.022149758546166697, -0.011174902710335572, -0.05462124136099647, -0.009382639478525091, -0.03144175437180322, -0.013778366463936518, 0.041854234842858905, -0.047175117057545166], [0.02589154228666394, -0.01374251179572435, -0.030834747845555236, -0.01966271121970613, -0.011897456286593982, 0.024600687468532157, -0.028852744867155205, 0.009395981130008474, 0.025320911177461925, -0.040931013708390154, 0.04280746461209715, -0.04878139986775098, 0.0561009169048784, -0.04943462555904519, -0.019159720791635984, -0.053021216303018655, 0.005683637182758224, 0.02326448591311615, -0.03321978837009195, 0.00238862191724047], [-0.004882658879397741, 0.06191119223615485, 0.013528948463252246, 0.06167371508343023, 0.02698388640554122, 0.06515894760937427, 0.06172735989951767, 0.008027525570984767, -0.014715609291931995, -0.028043938396498883, 0.022344848993908737, -0.01974073867007336, 0.023337684503742375, -0.011647220201795193, 0.03013126517449936, 0.020013309775765098, 0.026387433862570666, -0.005704992099984259, 0.057013635416442845, 0.045005587859938835], [-0.04863702815889854, 0.035447018662809054, 0.006103432179877607, 0.047867375967917174, -0.0353875606035782, -0.010573093131724016, 0.03778282046063169, -0.04233120157673911, -0.020058777583419053, 0.03283976131325504, 0.0018523911855260606, 0.026045167620021965, 0.055310865678858616, 0.09173784432368028, 0.06390026053695681, -0.0016964607497341499, 0.06631776723467535, 0.02323981479166656, 0.07326862368186153, 0.04223469986990039], [-0.016086184383370065, -0.018191806685192026, 0.04399267204567785, -0.03314515338956262, 0.014209516373146106, 0.012094151051076404, 0.0255528398586253, 0.037786122848884635, -0.007370262608098483, 0.056530827361343905, 0.01690202348757915, -0.01569461165216819, 0.04000797708744173, 0.2280251851988329, -0.04369554993453963, -0.02014244972910432, 0.005915124355901303, 0.040813802441307376, 0.010534353575399665, -0.033939886259426275], [0.08186693926522422, -0.06346474158957173, 0.018279373692882017, -0.007963338401911933, -0.018599505225253953, -0.03672930862149695, 0.0258590686692435, 0.05249769699044105, 0.05113919258321252, -0.028379856548513275, 0.014902314849529308, 0.06529260182332666, 0.052304840643585045, 0.022759613082026495, 0.016074733721832307, 0.04578412713040219, -0.01191509842872231, 0.0798572632728195, 0.0030908957839149314, -0.0023340870743588883], [0.0963239961660488, 0.026504148077334855, 0.06734001397761248, 0.09704225561265696, 0.05884635510178442, 0.07579529991810888, -0.00042811490674519857, 0.09069248627490224, 0.10530598215035131, 0.11972625126535176, 0.1013673092894325, 0.08005019056277017, 0.016778219312194684, -0.23104867318502903, 0.06491636059140403, 0.10692663211322499, 0.026750537949726687, 0.03474636303310117, 0.06881196583683565, 0.06491733011228573], [0.09954295481686191, 0.06626645684383324, 0.13692357948967532, 0.055429670014063036, 0.09665233464470785, 0.13414829323532743, 0.05504170024336023, 0.1254864869017195, 0.110172283000559, 0.13224144940740812, 0.02201038500007091, 0.09431948370921973, 0.056889729394957664, -0.7637467574873258, 0.05716220031721423, 0.054844602230768175, 0.07228489055944526, 0.04818429914117246, 0.11997561627770173, 0.10024435235144957], [0.09381799918664545, 0.05496986733582647, 0.06325888528351349, 0.07001807864145354, 0.10241673681574924, 0.09837504955868719, 0.03421225786631411, 0.07510668607435952, 0.08417158788446695, 0.1228027028560369, 0.11706807082995856, 0.10224131303200361, 0.00725259391279918, -1.0324354528396034, -0.0274267510591625, 0.032420220669797176, 0.09403341711926941, 0.06722511112060486, 0.10257387226865534, 0.07636487187341685], [0.043005432396506324, -0.05269496677407092, 0.025420138835982674, 0.0996763949949685, 0.04675906578750583, 0.05985493215939955, 0.08884586463866154, 0.09927460699447115, 0.0019316738033817945, 0.08556173987294378, 0.03433367656642898, 0.005388618370283265, 0.07724481616985185, -0.9245880685772101, -0.1029261737475432, -0.005830629335921148, 0.09184818493262092, 0.11905906126336599, 0.10959142663809827, 0.006817009140546748], [-0.0069768388222809586, -0.033676044122689285, -0.024562216119699522, 0.0038693706915481985, 0.055870535788548115, 0.010461958103469619, 0.06850905475408761, 0.04290400083807659, 0.06744089707819166, 0.014881897537840643, 0.03491547068973272, 0.07526672373553146, 0.10730194751995967, -0.3177263445143661, -0.02100530907897621, 0.041918825947469346, 0.06785324596273888, 0.09643150587376785, 0.03967048706200021, 0.0901788999952327], [-0.01835137983779878, 0.026238575033286648, 0.04357321392981143, 0.04779392354166055, 0.11596234508083623, 0.06895582520373097, 0.03451401067840265, -0.004419773031375621, 0.060952053714164074, 0.023227710657227892, 0.02225858257975546, 0.07315570150826882, 0.11996080002195875, 0.0006820894721474163, 0.09013757952599118, 0.0891430558819653, 0.03567424869823851, 0.08226167066192865, 0.11169499351695121, 0.024668249368126234], [0.050928076243421674, 0.16129760908844823, -0.0018031656685274285, -0.00879804059923154, 0.08342091265186695, 0.13301546233196462, 0.055093922453423365, 0.025423298836063347, 0.10023257167449809, 0.0842576892098267, 0.08375085645481395, 0.0704849048581979, 0.047212911594696115, 0.12856783733574764, 0.12648751620099905, 0.09419519849746803, 0.11188415435123342, 0.06133204706426451, 0.038872130313192005, 0.12201935031238939], [0.05270548445785045, 0.1480718813685091, 0.0450514458759157, 0.008640176342247424, 0.09204733845695895, 0.04803735165975734, 0.11099945933686485, 0.026003602738782442, 0.06486030181169244, 0.032917900113121644, 0.06329328665300143, 0.06993512235470706, 0.09086154409798344, 0.07879955596967514, 0.17623341149997135, 0.015777464065399142, 0.07543026970632198, 0.10588209293034721, 0.06877885161462943, 0.06398676378117717], [0.06482740905717967, 0.060147018360251575, -0.007938616584977855, 0.047640489730268784, 0.02849030097510106, 0.10975879472879023, 0.07781399178239609, 0.008561162927550695, 0.04211169468871494, 0.08430135161183817, 0.0030239829184568255, 0.07395147058575526, 0.004097223811480237, -0.46280080890712333, 0.10640563217117979, 0.034024665793312585, 0.0048158277516779004, 0.0712685793234048, 0.03265695601865092, 0.09757048070607878], [0.08876739300591717, -0.0017500380934180571, -0.0019507132699276893, 0.04220182000510854, 0.0029392096990615334, 0.041604030550422326, 0.03170028678605972, 0.0459154290743131, 0.09980667106267241, 0.06642948640711577, -0.0011467506337704924, 0.11652346583288065, 0.061324450904054334, -1.400518555447785, -0.12491123752799033, 0.03256228591722656, 0.050046381472386804, 0.10383306028736092, 0.024330623266730456, 0.10912821850404927], [0.039939301768407647, -0.005649489643470514, 0.05618343631413254, 0.10794683836970258, -0.006547148296869294, 0.04380355038557869, 0.09126945298471466, 0.05925187163153868, 0.05257739332556491, 0.04414249173589067, 0.053655830081845705, 0.09717796813006394, 0.09123246228201554, -1.311013318930704, -0.1950489106594224, 0.028497151675767166, 0.0983309874063762, 0.08475142269023761, 0.05266437000124903, -0.0003453994548488712], [0.09118493827638983, -0.030142616711551863, 0.07290599230715084, 0.07902185836503507, 0.07598476364691885, -0.0384906020143867, 0.012520294856405973, 0.060135131110755975, 0.06228698470583395, 0.008081677533511692, 0.026608439509285303, 0.0034937252224514458, -0.021106186399064957, -0.20670340323772982, 0.06175224636082656, 0.02978278955398761, 0.009831232113973434, -0.01320983740299636, 0.031416964449462105, -0.021395919566830016], [0.017028984600136247, -0.032106633182283593, -0.045600589857631275, -0.048870963697736976, 0.022258425002624982, -0.002630844776237084, -0.048211003125648313, 0.048608397685691536, 0.048431968246207574, 0.023587609927829933, 0.052478091278743144, 0.0026228676981749264, -0.017787084579642995, -0.01319740421852795, 0.0705376200989053, 0.01736076555510393, 0.06751215540057416, 0.02823917473317596, 0.037702626926046125, 0.062326286546685775], [0.008856302653325224, 0.018798335670261006, -0.02855392623960037, -0.045880870226923776, -0.03614267460392618, -0.053387146269659395, -0.002783010963881144, 0.028883934199045693, -0.02386409489266532, -0.016154158294209003, -0.008378239743914977, 0.013451021070182392, 0.04899582369030968, 0.06390208659987004, 0.022191182732497722, 0.004912415460147023, -0.009053059980408508, 0.016028525791501644, -0.04802060446121702, 0.031480952635900235], [0.022870675437020472, 0.054225467036128745, -0.0427615340849517, 0.022930117016148735, 0.0004907011176488588, 0.018705597525902007, 0.0001642015307091752, -0.016996884154145117, 0.02625137093118615, -0.014561404897285784, 0.015789842662684916, -0.0052076403503660135, -0.009014563594800016, 0.04166868976278029, -0.04485844158512444, -0.0572423332505634, 0.021466734890430963, -0.003925269740131202, 0.014690660852300995, -0.043930755713475905], [-0.03061862358784349, -0.031180618084865247, 0.018343426876698685, 0.017959617077600434, 0.013740965230638193, 0.03935914509424048, -0.0020201971853847428, 0.008836822058275061, -0.011769933468761266, -0.004830244735102345, -0.030060734284880833, -0.033980012803288, -0.03216288629829449, 0.0056797821398990155, 0.058997820735105524, -0.02960004172313735, -0.03425528800972701, 0.0038174431437376847, 0.047395301346207584, 0.05345095808727776], [-0.002796853836268256, -0.009097804835895324, -0.03985267070791112, -0.031023652599875766, 0.029997382292951864, 0.06779187460176822, -0.04267825772260829, 0.06059748901844503, -0.012036124680171442, -0.040064644680608684, 0.03946279039063193, 0.061346074027577205, 0.0233518266016923, 0.023278276593559542, -0.03780226695721112, -0.005700117978967985, 0.020116739507745646, -0.01577209516547054, -0.0013185174627590838, -0.006629462804937902], [0.06617796099833881, 0.03203974349489232, 0.031901788854516305, 0.06511907386894136, -0.02840602622020821, 0.028134661610905103, 0.05525496149627949, 0.07682568926599155, 0.04600833117129461, 0.03683688023324145, 0.017999622657452204, 0.05235513456503508, 0.05518617511605497, 0.1989291489907307, 0.05779320359913294, -0.014458520952037767, 0.035043429651047446, 0.04200981273503946, 0.07230861855062502, -0.02383170137726621], [0.03392494649368762, -0.012512591819866425, -0.04214429717034477, -0.012731093528853746, 0.018931880393824322, 0.06138119938259617, -0.017839593327004973, 0.07555094499485318, 0.06011226838190459, 0.04307927384505932, 0.03372599304981312, 0.07571958294423532, 0.007416192886391631, 0.07190355779426784, 0.06217710071077301, 0.00012119493585091267, -0.027323872533899077, 0.03298376696249587, 0.04988191488473312, 0.005824682409099075], [0.10696661011903295, 0.06034716255793651, 0.006729801684821174, 0.09351311320180936, 0.024965859869761665, 0.07801255735141291, 0.10341599098696583, 0.0616376583322575, 0.10859154839775358, 0.0779666433729426, 0.06278551186704989, 0.011495293949005442, 0.02767109216680107, -0.27864249260815055, 0.1249704679426588, 0.07974312407698109, 0.060098087828218516, 0.0408592016905277, 0.005143575584573352, 0.04089493268802275], [0.0170600592936824, 0.05539679493551809, 0.06856947310364768, 0.036672237905001494, 0.09834058751708376, 0.09895929314371851, 0.06641408721880593, 0.032216508660824116, 0.06863491357008898, 0.02049703609430623, 0.07413353973118096, 0.05995129337817627, 0.11646504171487286, -0.7428643148953635, 0.11182941849947414, 0.1377682114204289, 0.13008064944661046, 0.05725247192781514, 0.08842299278718559, 0.1290083426516031], [0.1102301115372148, 0.10181526173664805, 0.1360322978550989, 0.1226645264945314, 0.13627064100401015, 0.1604392119728539, 0.09538595764428001, 0.08177813460850893, 0.04285965045192785, 0.0802417885206324, 0.15112484099282025, 0.04661877806283817, 0.06176699502187358, -0.8665721794823924, 0.008115748749502529, 0.09280345546379948, 0.11560999486595457, 0.12748305977936483, 0.0729034457889161, 0.058415458390527294], [0.09817157206996256, 0.09429513130458368, 0.012328840738231721, 0.04301707276959547, 0.12930142171880316, 0.03162101503006422, 0.03592600016310115, 0.07247949285091163, 0.09776584521462264, 0.09745764648948059, 0.08951581550543544, 0.04852307372486828, 0.037487282930392496, -0.5779742576016872, -0.014570175884450687, 0.06707792131767659, 0.12163379682229983, 0.06403272376843835, 0.047254095520462946, 0.05537623207670234], [0.04807774901073632, 0.04470424355971983, 0.012436582982054026, 0.007542881590407032, 0.0035090589616176937, 0.018405006362936682, -0.011435255380336705, 0.033827793656607465, 0.028391930351700744, -0.032634470368262954, -0.022168863989091403, 0.049691575952566416, 0.06472558999419346, 0.04782133850215605, 0.038058903557028144, 0.04881345675887007, 0.09257954760649978, 0.03573629188798792, 0.08800294788494449, 0.03775185679800167], [0.0571767327576673, 0.042348463256221866, 0.05441496439298711, 0.08701695186497, 0.036780105838168646, 0.014157204296440769, -0.007146019518626175, 0.04749044597862083, 0.06412597328898186, 0.014310133237997631, 0.025837664668354774, 0.01036650364474666, 0.018678560796201015, 0.4680438723609885, 0.14015346479753918, -0.012351625930589102, 0.08062528468812515, 0.06815550833487788, 0.06799795655796734, 0.03007938672067834], [0.027816563069439942, 0.20216459656699884, 0.0658277740209108, 0.09098592690998446, 0.0975773385154725, 0.08505668109304787, 0.10227936605383874, 0.05811493159627167, 0.09295686002787071, 0.004713742473877541, 0.13143588838102738, 0.0899841991507907, 0.08188469322072141, 0.5875226247406179, 0.18184136119766992, 0.03877005317979983, 0.06714487050772096, 0.07883585399790677, 0.09242462417451074, 0.12061115215839281], [0.04762561951330848, 0.13768754537562974, 0.0146825701719179, 0.04379595871456148, 0.04637772765230192, 0.14305461138930842, 0.04997270061186538, -0.00859287196723594, 0.09144465831018538, 0.08941667296355944, 0.11365018145763724, 0.09690319722696862, 0.09170799860228936, 0.6373341466608128, 0.26490291352998374, 0.07123688148600078, 0.11888377443047717, 0.05331850063003858, 0.07587091671747712, 0.10261104911553065], [-0.010178791442008062, 0.08346890200456582, 0.07142759303287669, 0.026120555332390955, 0.1396581279432774, 0.12400800568479638, 0.013864038271137042, 0.04160536216156919, 0.10756911414674265, 0.027991345176357905, 0.08696774991695291, 0.07413288422994628, 0.009395841946063105, 0.6733469846006284, 0.2217449994381174, 0.08442368455674726, 0.048376679752637666, 0.052873502922900106, 0.08257965808137578, 0.027716764466068713], [-0.013705122130047716, 0.004471890405351936, 0.06940368245788518, 0.005398457143486385, 0.028794972234866795, 0.014746227232715351, 0.05191420353632568, 0.030984797545131344, 0.06641929469278235, 0.08993758307051095, 0.09807183977595522, 0.0473719816456246, 0.046942632938461196, 0.2335846145737183, 0.08504514420529594, 0.09529174188575967, 0.0016238634033340768, 0.08349072934798446, 0.047517993261846886, 0.09860283017569997], [0.07082886314717912, -2.688630914175992e-05, 0.00799149628237209, 0.028412641424791562, 0.12262072702595787, 0.06064901036533507, 0.06334752935663225, 0.1316051648737877, 0.03890035172385177, 0.06329480522816873, 0.06211325580574563, 0.04395567138742926, 0.11453501067570933, -0.7848345462209404, -0.024111166289936776, 0.0588047698289253, 0.02002701576999591, 0.03039847521050781, 0.11806898042227605, 0.11406461553762719], [0.025502706766500453, -0.04398377404432792, 0.10496978244944889, 0.034781831542997826, 0.006511763689953845, 0.06452679078027689, 0.05200545848489198, 0.06825671805191738, 0.03855075712970214, 0.07112307221265655, 0.019803238695738808, 0.06721779255955207, 0.09616545800055223, -1.5023330132150314, -0.19917927112056064, 0.10145107924216866, 0.06948585878733292, 0.02827201894921653, 0.03589531679129821, 0.010890747185652876], [0.0612075922314568, 0.08237514758819615, 0.01188909219689007, 0.06830426204411089, 0.08697239937107383, 0.07438868500754496, -0.016677646746044217, 0.07587101906703526, 0.08901760221787863, 0.04883533628264781, 0.09653936314179717, 0.006214781162273083, -0.0015349802995854988, -0.44090490075935196, 0.002167443087984102, 0.06599311064664863, 0.02944485438571683, 0.057804227837553755, 0.04277760102161658, 0.03561003355245463], [-0.03611180333106995, -0.0031904904283373103, 0.05017328832415473, -0.005733030727901294, 0.014810412470356452, 0.046532025054933576, 0.04013020944712994, 0.022379952522788085, -0.03840192713147627, 0.055701157917773934, 0.04715920147677041, 0.04382508125280213, 0.019897227392636416, 0.022820891303327134, 0.07917122268456814, 0.049408440930647404, -0.02512815986746102, -0.0020324719375390027, 0.015970003645901308, 0.06947319433837094], [0.010539458202274907, -0.0338545277762566, 0.02180283833427027, -0.03207164747639456, 0.03993051668934966, 0.05910735964834474, -0.037971374165186166, -0.020108196509373514, 0.010803877817545085, 0.06161930966241448, -0.0052032988676884995, 0.025286412394885053, 0.045752516665841916, -0.020474391677083436, -0.03343837269012538, -0.009146126168483825, 0.02052973890160169, -0.019158586936507353, -0.013464883736505619, 0.0373113985093575], [-0.023264288091093963, 0.04988858975366839, -0.014939252048499576, -0.00858495380670095, -0.03906201658173306, -0.020509319514985185, 0.05367873756267608, -0.05511396181389151, -0.056623907056797915, -0.04902453408580253, -0.0053791856289400666, 0.03052799106861834, -0.025721620394267224, 0.008816903337146277, 0.049260996412754054, -0.04592513343515268, -0.034348530283383596, 0.004718900681522406, 0.02552948614936874, 0.015416966475086986], [0.04102556247275881, 0.05747620618993853, -0.029801688542722703, -0.021871630635968656, 0.020121135260074464, 0.05162446995782834, -0.02504310380332795, 0.033037528174971784, 0.007577775077341234, 0.03172019348982331, 0.06271693309929167, 0.03189370737823332, 0.06415551775153937, 0.060371481339262865, 0.030017549476040527, 0.0033159423322543847, -0.03903590509116302, -0.05509108733359683, -0.005212914148718241, -0.015099615626925703], [0.05165747373269939, 0.006699989894249693, 0.03061722469441083, 0.021460214417369564, 0.03899425394024872, 0.026168433344806414, 0.012223179685932676, 0.0522880937279589, -0.02014987993184, -0.027371403955257285, -0.03212483287681798, 0.07619319888946371, -0.02718258672406407, 0.07340272228561498, 0.045995788043731035, -0.012337645750939891, 0.08293757392532372, -0.0068593144895521515, 0.009812724256529185, 0.06657565150609789], [-0.010163029482088014, 0.10435183317618484, 0.05361156144237712, 0.05668325389103487, 0.07358818822478178, 0.053720323079541506, 0.02924794666595228, 0.04399320204062324, 0.016187779068444458, 0.02238144213349628, -0.000274856147305077, 0.11256992140851904, 0.05278897751498842, -6.759956027360961e-05, 0.0869646291091822, -0.022500116614184627, 0.04540685900505922, 0.08273327880541069, 0.06435311595277118, 0.06643434032348071], [0.06425245565389705, -0.02116664674860677, 0.034781111671315215, 0.08516116953682923, 0.03250756413730773, 0.006275988389839334, 0.05381529523660457, 0.05840878584617327, 0.005764567826014004, 0.0336196737096209, 0.08145135098478903, 0.11691827801563247, 0.09394840808263, -0.19875094118961537, 0.04799003725069619, 0.03016142136557671, 0.07750877409631736, 0.07568776894006839, 0.06947106834036564, 0.02936445527169774], [-6.401632046499248e-05, 0.03899820124285185, 0.028761141269570436, 0.07466999656379429, 0.07233818786686984, 0.05710574945065605, 0.021076368401293413, 0.04903671298451356, 0.0402403898740362, 0.09406354427070741, 0.09351533852979187, 0.060871476212491546, 0.04522380063966668, -0.8596272957538176, 0.03342304698133047, 0.007917552178201318, 0.05037318253459734, 0.09200568985911002, 0.09781700569444082, 0.0821570344345082], [0.038488424277388134, -0.012730058308789108, 0.04430745108359479, 0.09758361486118103, 0.15192098429842837, 0.06366063157750564, 0.11109431048189565, 0.0482563216701681, 0.0625726037743847, 0.050791460028563454, 0.10095627699297159, 0.043541457801963245, 0.03216786936660779, -0.9480325047934797, -0.061885946407983755, 0.04570920980096931, -0.007057402794384985, 0.048443012857329305, 0.021118640303942626, 0.07183259310051085], [0.06477026842678732, 0.0870358985850225, 0.0773714560642242, 0.01819801563404741, 0.03962877214707644, 0.021389215747799898, 0.018240961449575124, 0.0427911613700824, 0.09072789094832184, 0.06357984899185264, 0.021770973733346848, 0.052748393163136176, 0.01082611479072904, -0.7605129872416662, -0.1018570110497053, 0.036948239107138584, 0.0005122648848214966, 0.08981784079689566, 0.0713153828207788, 0.10283841543774248], [0.0785318670904281, 0.09518544800328785, -0.02435891728687613, -0.006839796796193365, 0.020328338241247315, 0.0013532710024361635, 0.08414952569558382, 0.047407866435978, 0.07725471357199169, 0.07949144489143015, 0.0753186467429783, 0.0528281561201298, 0.07321568710025345, -0.029715523157377122, 0.06235872892114239, 0.07049802567597789, 0.05004405071137383, 0.12180748272247188, 0.024778635103844555, 0.12195523302770812], [0.08429830664452595, 0.05038675453484209, 0.0317777000731314, 0.10338135290463461, 0.025324001936962142, 0.02930230506214321, -0.0013730793184655822, 0.0951078844211918, 0.06582304725937578, 0.06184582434565105, 0.07637407861144617, 0.01094207417969778, 0.1214251092118692, 0.7139304931668722, 0.1978657262960804, -0.006413234888174229, 0.08540377892891385, 0.10224758664880687, 0.041651168159881485, 0.08959829637101617], [0.029666483172937512, 0.12031153591187113, 0.0034002933630275876, 0.07721392511521558, -0.009692921876397826, 0.03872699863931716, 0.09794678691114875, 0.05149245286184408, 0.010055781166272195, 0.01528335763077259, 0.03802203136905025, 0.12096794477962534, 0.090965532508051, 0.8785749022958861, 0.27526560339249245, 0.10126133533435927, 0.059172385904078716, 0.10259008329573832, 0.07065150685969444, 0.08728124223013865], [0.03396059401754167, 0.29339361410133713, 0.1434812323603302, 0.09019123235427273, 0.03476141441498871, 0.14157559507481246, 0.06597061368631935, 0.11089206183761495, 0.04039759333962897, 0.10740735905757917, 0.09951751853831163, 0.05174120837497592, 0.060932754570806144, 0.7977819345685109, 0.34899170794666445, 0.1312025243179918, 0.10128698890620007, 0.07680430867593281, 0.023289979449476108, 0.05989934003027737], [0.08244177590184942, 0.19378535184497708, 0.14039228351747093, 0.03467618846537979, 0.16214414526237167, 0.06560829356563606, 0.020200128389069736, 0.029249209926458113, 0.07197718472141566, 0.0880854694686428, 0.1252111456189773, 0.08676297085316591, 0.0966417764417558, 0.7688427507033989, 0.3385063962150104, 0.04701560822611649, 0.15245475529504204, 0.05885433269686848, 0.0660047522184145, 0.13215195656590825], [0.06100752355449483, 0.13766945633828462, 0.07117526096147807, 0.011026948930617474, 0.103889735057287, 0.0761810117920008, 0.09847367702457642, 0.06859112333203951, 0.08874831935528787, 0.06484246950644137, 0.14011868412578776, 0.034014910800272434, 0.1366873402089536, 0.6819552959760172, 0.23487176317277064, 0.07559885560417054, 0.06353511608081952, 0.03699964496321652, 0.08252004877790046, 0.03794537232436916], [0.0759442029759984, 0.09022530056096689, 0.03476374346492495, 0.0496170704294824, 0.13559540860194422, 0.10256308129148103, 0.1217335390102376, 0.01939102151127685, 0.03740888380171811, 0.01709738213374201, 0.02454753348233325, 0.07157643423704715, 0.06376643434224347, 0.24310914612006054, 0.10370457657713701, 0.1316272532250957, 0.023947436073470694, 0.11721532365086344, 0.04496504964175106, 0.02162424159136494], [0.1053473816666327, 0.06047971929800482, 0.10835128331316872, 0.018038358672482428, 0.11853199746730722, 0.1264976414997381, 0.04434777972802978, 0.12475626333909516, 0.06980468763299441, 0.127513417299437, 0.022364656414924702, 0.06612684638785031, 0.0013057136795189986, -0.5622636015488071, -0.027657520508990664, 0.041164664097867065, 0.029582878079836162, 0.06512420391999237, 0.10082661104191258, 0.009121277985785834], [0.07068430687299515, -0.0627611039548254, 0.057599074841763145, 0.037901149768944375, 0.014770371133947047, 0.0859659969554339, 0.10401380528282701, 0.04947885819879568, 0.11428731426926518, 0.12964987012093393, 0.04145379140279532, 0.09002938289267536, 0.11239574038819157, -1.0697683126715636, -0.09071187447832722, 0.062153147277064086, 0.020216037162518526, 0.11619583449650249, 0.05060096455598197, 0.10227561307889424], [0.053998477333287755, 0.03393172488130129, 0.005146987207642591, 0.016266527440907397, -0.004944733808979084, 0.03724149704615266, 0.07222705375314806, 0.07276811540622362, 0.07257220703508978, 0.0862701301426522, 0.09505291110013038, 0.01720304460123025, -0.00711326912960766, -0.3013541083021498, 0.07820317049034055, 0.05311047139339375, 0.01686570870578662, -0.008900590569593211, 0.06770060220407291, 0.05832837344240898], [-0.025405359891573623, 0.04536749176311634, 0.010401961540698095, -0.014165039664180718, -0.023640034584767607, 0.060958132231541465, 0.0020596338003877213, 0.06650482361538149, 0.020247234600441994, -0.037777520489366015, -0.02259728545009029, 0.023541289107531966, 0.055308103258790216, 0.09164838673907338, 0.07884652240715177, 0.049555970684820864, 0.04520591832277916, -0.045397817442045366, 0.028541489440189933, 0.032622366348332224], [0.010190500029633344, 0.032014791046114294, -0.011645878107658398, 0.030306680811041053, -0.010167581956925098, 0.0270367333609824, -0.023820737004966386, -0.03819388710799532, -0.010553571120651016, 0.05933805613408045, 0.04855237803539067, -0.005052334638755111, 0.03156281628486627, 0.06178985867478548, -0.008340026999291638, 0.04099875062454128, -0.015700973333155076, 0.031125534719477568, -0.004394493915668293, -0.04679719178932837], [-0.03382698858418262, -0.01055027637249819, 0.04357777633117306, 0.059008765443881395, -0.0029574769326858393, -0.03729789176669186, -0.051343071943142284, 0.026309328991980074, -0.046188420534277824, 0.014267484932086395, -0.0016563066853442269, -0.04180321482497918, -0.05343188327507547, 0.020248501188105426, 0.01430045715211304, -0.0016324307357892989, 0.05011119040102134, -0.011287486650774961, -0.04513350283977058, -0.056468334411479616], [0.04003382802603058, 0.011996592977393084, 0.044447948182363084, -0.008283930470134633, 0.06325691302552142, 0.0326059367189368, -0.05190598280007496, 0.05505467455626678, -0.02906025702474985, -0.018414644896218378, 0.03184501906751026, -0.02251525067210132, -0.023458047612385673, -0.01665719395862824, -0.0191444509044334, -0.01521240394726721, -0.013788676216604802, 0.00992902674617943, -0.05227538782340905, -0.035642006522438235], [-0.025019652492243017, 0.10435129277894799, -0.03470569290357006, 0.052338194781873265, 0.027105170045668158, 0.055086478653566535, 0.052107261019224686, -0.020218915140269866, 0.029035486877533184, 0.06035798569110599, 0.07073001897999444, -0.022150761594537927, 0.050636262162932294, 0.0887612317134642, 0.0914864651951403, 0.07175242953355311, -0.0007786499112129649, 0.03348164789458247, 0.027144592649949957, 0.03364166384232568], [0.0034498210194143196, 0.08759296051136636, -0.03295209900517818, 0.05647250189790418, -0.005076873904662547, 0.06171459653358491, 0.08442444608011235, -0.022626447684096312, 0.041310180526488625, 0.009877284055348077, 0.02365073997096257, 0.06384094795429347, 0.0033297238151140194, -0.16452136750193233, 0.019241217637445348, 0.06275219434321933, 0.06641861447677916, 0.06399499606867844, 0.09612265096563082, 0.03341805205436561], [0.0695977652964254, 0.003249519495008027, 0.004183856027942409, 0.11007611253137645, -0.015004327944553093, 0.07624385715006969, 0.08783376386456199, 0.10993460682098294, 0.09747256227206408, 0.05971497524031978, 0.08345828821680033, 0.08782494420294505, 0.03477677968164581, -0.692310364385409, 0.025226072345237067, 0.012899659288995866, 0.002996207771344438, 0.0820297775210089, 0.10220135017140893, 0.039521302104250984], [0.043473301227641335, 0.06888721307721045, 0.009758323651544012, 0.1230725935981599, 0.040532650538075955, 0.101332942107243, 0.11598087793033529, 0.09620075827542755, 0.07325215506701903, 0.02697093848221238, 0.045736191344177335, 0.01955342403124545, 0.021224929494649818, -1.2210945666626198, -0.011806821941977911, 0.00884931492117899, 5.120213678339133e-05, 0.06451920651498867, 0.056288011750285506, 0.07938947885263929], [0.10743311489075817, 0.05950313092167868, 0.08401185049145486, 0.043306051622269776, 0.07081317949830367, 0.0781779792951218, 0.07998442823777833, 0.10212677114711122, 0.03292669367340366, 0.13107072084731977, 0.038440295760362286, 0.12639999098722673, 0.026795396716349278, -0.8597627372720315, -0.05432742283801185, 0.03878649903763714, 0.10939156919722111, 0.11556680095565441, 0.026890185913421336, 0.08946279503394637], [0.02367701736371825, 0.14351278259316527, 0.11856905143016208, 0.04555029242302314, 0.014744139617610187, 0.05717839546534263, 0.1216172986050854, 0.1306573970920281, 0.08621615010025103, 0.12352819873763124, 0.12406871472227236, 0.13215351161720254, 0.11745232763277888, -0.29530566209149645, 0.06539346033562833, 0.09884707080257119, 0.050387609743198766, 0.09639040126889295, -0.0007047417478950297, 0.0604057872150128], [0.03637330854957136, 0.22327961351324685, -0.02200129554121791, 0.03681289385669276, 0.06631778131268669, 0.034646314811946154, -0.002278839473412145, 0.017330542071464432, 0.07752587041444996, 0.0024615881119662746, 0.04554097409822922, 0.1300840895351637, 0.11128116562695405, 0.610956162573396, 0.17317098727525687, 0.046521856100813386, 0.07575387452894534, 0.09682819228160688, 0.05006002469847509, 0.10027054451387461], [0.09823555945212685, 0.16604290009365613, -0.02759662802165276, 0.11434107054742386, 0.0256197934552026, 0.035070554797084603, 0.0152490754066778, 0.11088987023131576, 0.05025417111350314, 0.06379779727069768, 0.04563539457602833, 0.10027149376497395, 0.09789757253723941, 1.1658388693496418, 0.24069704214238824, -0.032728918326530514, 0.11453143850009906, 0.04751807854949551, -0.04035129656909093, 0.031143844748300262], [0.12265025948491819, 0.23249263581366109, -0.006392209198585363, 0.02135682304162371, 0.05148382003610341, 0.010107075781283845, 0.02555055801025567, 0.013313437158228712, 0.08196938468069766, 0.07174950303151738, 0.16341690632780365, 0.1056599100784169, 0.10082490324072979, 1.1448251700254075, 0.2999082667199454, 0.04796588350505132, 0.13944791870876136, 0.13759241035391878, 0.06613863825807362, 0.11008614787211915], [0.06137341461202919, 0.26818154342626793, 0.078364772288038, 0.02737550691939981, 0.048672951415469255, 0.09567488637446075, 0.07593512474347996, 0.06601603532062918, 0.07150172071366374, 0.06120494114015015, 0.0954793435294711, 0.01807479101783852, 0.07486652146008485, 0.8340565571631743, 0.40012069477620954, 0.04930308181953788, 0.14567466733556098, 0.07956884578304997, 0.001564710884038327, 0.11652200721361641], [0.08761520692438929, 0.19355248608863085, 0.12089820217658055, 0.06426962702944701, 0.1104543149775476, 0.12885743476844683, 0.09500793430114203, 0.06372038747618532, 0.15289173509300746, 0.03622366286479173, 0.17189385141082994, 0.07685484343158433, 0.08199877931359013, 0.7374483432545362, 0.27795628539324424, 0.120522950490304, 0.17253336194417385, 0.16679228335181426, 0.0357803348945449, 0.06863377447605916], [0.12305023619780783, 0.13953688015250318, 0.10950278866072993, 0.04272410125595696, 0.0707937919524822, 0.16415936907618833, 0.10286037815543049, 0.05277934114551328, 0.12864822954132707, 0.03239293145144938, 0.08646360863440802, 0.10066343218699725, 0.08641908554923305, 0.4890377405523487, 0.24722596246378092, 0.06287973354633941, 0.10788002768522612, 0.08238364979585108, 0.01703223414901168, 0.08421760536273792], [0.1103636704154489, 0.07416713109209377, 0.06693827014752231, 0.1216157504935587, 0.07187448952330983, 0.13730394759744466, 0.05018038233533764, 0.10767536810404649, 0.0691204811555213, 0.03671997655245795, 0.14921081467409578, 0.04422192681465068, 0.13863964772906162, -0.045983452446614385, 0.13517043380486998, 0.05395275288415107, 0.12816651248870356, 0.0665543693079942, 0.11424079042322446, 0.09353648293654877], [0.07921369703185636, -0.004612085621176426, 0.08855769631895634, 0.08538542342856857, 0.021620905806824103, 0.05069975772782524, 0.022715929988727228, 0.1277229990884289, 0.10295963475242287, 0.09976457550457438, 0.09759474010631884, 0.036078610882355505, 0.1054117208611178, -0.7261591885795178, -0.03263760996223294, 0.05629474581447808, 0.0044569810504738235, 0.07500983889293762, 0.03521645810098652, 0.11852481595297762], [0.06745192044562853, 0.02085018166620652, 0.04778075509985238, 0.02245809826818893, 0.014314325024079429, 0.07954926929195384, 0.06972356124079399, 0.06820114748772116, 0.07861884965795363, 0.043486077288290854, 0.08741510565308047, 0.01306193968185448, 0.0923226146099092, -0.8506623118142701, -0.037752656506477175, 0.08063843101201702, 0.1093412979014312, 0.11033256342249177, 0.05781720555325413, 0.09304536302141407], [0.013717779128584493, 0.0007607245102659278, -0.010200057522969774, 0.05754598853719054, -0.00933290920795145, 0.08805985373992795, 0.05953553258251394, 0.03640571302778786, 0.024300244975882863, -0.004669740136287555, -0.021684445228228596, 0.06784752835619298, 0.07684455702173303, -0.1372559900403556, 0.06241134375249235, 0.08123816837275191, -0.011643068779975735, 0.02201885773798315, 0.07969414183516815, 0.07179029372064016], [-0.03466671267060559, 0.08605289029491316, 0.04911594426792694, 0.00451506989429625, 0.05395861146304006, 0.056100361760976276, -0.013149994389447176, 0.03419858340234638, -0.049198727191495456, -0.04806615362438587, -0.01411610670959368, -0.025202688688660203, -0.021648940899238772, 0.13129683349559432, 0.019861520457459602, -0.045689520130317775, 0.06692077468971686, -0.022272650528490014, 0.030586633118130837, 0.04991726588695531], [-0.036773182519376606, 0.07397562380684836, -0.013266333252257486, -0.004991210505377212, -0.05570379289621495, 0.029556641219349696, 0.0056296135103668845, 0.0005250235895339733, 0.00021642712342167364, 0.04527775257977783, 0.02557493166720642, 0.049464364178889386, -0.023930390137425272, 0.08394136434148104, 0.02407722458936013, 0.0473562549962945, 0.003239590421054744, -0.020901562020772854, -0.03343216289425477, 0.05132229425890269], [0.023659492701027258, -0.02479195852803313, 0.031661586848816536, 0.009429406747453626, -0.006772068778359613, 0.05668849959539671, 0.034006046395086253, 0.05360671959569871, -0.05923541526442868, -0.025606360448216414, -0.026996975554707238, 0.04316954658383746, 0.04542157096621113, -0.04559453578274954, -0.037006907953150835, 0.03058073140844753, 0.04567626490173499, -0.051309637967493826, -0.03031531078940955, 0.011583073004969024], [-0.048088799849605096, -0.01920899866918314, -0.0021960681210748995, 0.060632133457653156, -0.04028526456372162, -0.04332729685723322, -0.0061955037976928334, 0.01618775206458137, -0.019938753583397247, 0.012090544866695294, 0.0021466279758739423, -0.0159036684719987, -0.03870906854872691, 0.06144778627523163, -0.009729793038031951, 0.014396937416557055, 0.039651552288603405, -0.006690819508954331, 0.05395727550987752, 0.035177856749692454], [0.04603137937045932, 0.07308769729315194, -0.02059542971792762, -0.047485830838589385, 0.03357257858719376, 0.02881952173610847, -0.02189715055289459, 0.012544810477319573, -0.02939825969133258, 0.01161716487427047, 0.008002795813610351, 0.04593640281285809, 0.05910597816266942, 0.15589878567096643, 0.07518220501689817, 0.01999823140811557, -0.03586097438529252, 0.0036483519728938594, -0.03756875025217596, 0.04950979428052509], [0.07419579647426273, 0.04231041607010435, -0.002343052121753356, 0.021931246702923877, 0.07684674928922647, -0.01842323458293784, 0.07939044799362696, 0.04552051059456251, 0.08207496959485708, 0.04816140116409165, 0.006575680681010869, 0.007558353943395584, 0.08577774183068422, -0.4580941958940269, 0.009340764162841932, 0.07025253931829453, 0.058709776703682985, 0.06255072899011554, 0.08116747074201212, 0.03723832535614716], [0.06495601829223292, 0.005063830498724071, 0.03507088275718018, 0.12213774137127155, 0.09784234015769552, 0.04529659139647736, 0.022611419346340526, 0.11099345621931356, 0.104848770857173, 0.08050317303058864, 0.036889675070424996, 0.09582061628043798, 0.10752180175418652, -1.0302133682079646, -0.09469915088757704, 0.04314767911299416, 0.010451378692371399, 0.0576041001384259, 0.046841361575564906, 0.04570797297053046], [0.07513768849950232, 0.07693504623907424, 0.1481448986166189, 0.06485204393964984, 0.07815173519278054, 0.027316354645970285, 0.02768362151508262, 0.13209143701849113, 0.13859812113136322, 0.09137247525559687, 0.04142553001525678, 0.11114837318265514, 0.06369631308103715, -1.0457121070014266, -0.12097230243056722, 0.11774006927766625, 0.03142240848616133, 0.11422828493388007, 0.12385764622698382, 0.0911944186675002], [0.09351383048152524, 0.10296038603871789, 0.10142657525007012, 0.12009032726831945, 0.10047081169428723, 0.12015437772335935, 0.11871997739092777, 0.11064875979517742, 0.10627738961886148, 0.06998558331431054, 0.1001163087496882, 0.1588779037993971, 0.14185882887197443, -0.4633612844894776, 0.02945219465445288, 0.09035823338093935, 0.04260918414766045, 0.04151902989775672, 0.08167529099260183, 0.11337841674031862], [0.12440888420667387, 0.22292687754844312, 0.10752883883734861, 0.13808448780348584, 0.05848422054690892, 0.03678615696425442, 0.06970209472684849, 0.0386427536352735, 0.11254013336553599, 0.11817039809495539, 0.06362846893047137, 0.13511203039513672, 0.127926215653195, 0.029296637210182528, 0.1351717457296448, 0.09103399544270295, 0.10417578854874254, 0.05846212004788861, 0.061167951855561814, 0.08707398048814115], [0.01885817115631417, 0.1767138163072272, 0.05229266974417468, 0.1265029819837652, -0.014799039786620864, 0.07658362928735779, 0.01566528882538389, 0.03163006757696963, 0.05136667801956196, -0.010329672868280845, 0.12891827229941408, 