{"bias": [[-0.05927557847356675, 0.05978342652980339, 0.05663441144966994, -0.004254682861091272, -0.017917793110128137, 0.05760485613800296, 0.031003913691979045], [0.014227033749252115, -0.0072788191977185565, -0.01613853096860272, -0.021658096096564234, 0.011757622918278771, -0.043578484565572215, 0.05117113781256364, -0.04009044294012521, 0.02472316227677613, -0.025341847445870955], [0.020151788836172004, -0.05018875053949842, -0.04333377070554273, -0.026141123778973405, 0.03876539944935517], [-0.08829127353216176, -0.015766331404776027, 0.04341095959432142]], "weights": [[[-0.0379326065716823, -0.010174240797907881, -0.0492179740519198, -0.02618294763042345, -0.011233503899365999, -0.048234994640819956, -0.031020759505648726], [-0.05553719027030286, -0.038712443866860305, -0.05054984490370478, 0.023285038598271475, -0.020487103203491126, -0.04443150613498714, 0.00938509099498314], [0.03660452592463342, 0.01859774711872115, -0.04368359102417196, 0.0019268373315983142, 0.039459288865805006, 0.03634975647906117, 0.05725925236899967], [0.05583923782677474, -0.020533128105729517, 0.03496140847352779, 0.05324966138520604, 0.010128137377913774, 0.02508332950987035, 0.024046046082433322], [-0.05194754806389608, -0.03417775866485175, -0.016736918640941456, 0.01797316316085949, -0.016431354552526263, -0.013186694738381915, 0.006272487050229268]], [[0.044397543591575495, -0.006411868597918348, 0.05537900093642833, 0.03487080241008315, 0.04452692672763612, -0.0109497122777656, -0.046006465113662916, 0.008232549931959774, -0.0012764560417053664, 0.03771189732819066], [0.02131223584120285, -0.01842348025400382, -0.04253880123223311, 0.05295759091442456, 0.020555867017913086, -0.0412328348500935, 0.045224293251591496, -0.015220430097224128, -0.034168841675340365, 0.0295254266466516], [-0.04815145478237072, -0.01727057257660943, -0.011167041544366235, -0.03510700030166975, -0.05711635717667651, 0.012317843836133501, 0.04443459076026051, 0.007689496769024931, -0.03916424080276062, -0.007731106979489524], [0.021204412165157217, -0.03461369277414457, -0.0501635925460253, -0.047327895205778375, 0.005475996108036339, -0.006640957216550446, -0.058192181996797876, 0.007149957615972259, 0.032036496231758006, -0.03870622596477006], [-0.03817056207962821, 0.02589719429355704, 0.04224688952630896, 0.022997017677126405, 0.010440660615702762, -0.01041458968204985, -0.014110997653652872, -0.011325752586781996, 0.02412691717935865, 0.04440198526279297], [0.008569268128267327, -0.0017810513056034667, -0.01719116980773313, -0.051487656186183346, 0.058940137752648836, 0.041068687514886675, 0.043182767493002074, 0.026080257624914435, -0.00012891898737643303, 0.006695241701037975], [-0.026695017444783836, -0.027459785566069664, -0.054047015807453774, 0.029047302774233796, -0.04683738693394712, 0.006581943892664927, 0.03279561143539995, 0.0023888195192614263, 0.023973925492222922, 0.023302566214560554]], [[0.05600217013022055, -0.04160178769144185, 0.05182270791814737, -0.0268790691306527, -0.01743241114676762], [-0.04464052310576168, 0.004835623948279816, 0.05954888129789574, 0.03387472683623237, 0.05939460717246371], [-0.046355571403966664, -0.03617152899479221, -0.059304186886381276, -0.000566239410293189, -0.030312937199838717], [0.044243978178991956, -0.03915850216239843, 0.03527019839742389, 0.05372278206672187, -0.03956340571861458], [0.002282877487126844, -0.0139592936768083, -0.05445371966547508, 0.027962985760785757, -0.008803877001557695], [-0.005363276452447186, 0.04488655581712162, 0.05475683789285261, 0.01581162935649446, -0.04415289353249997], [-0.009934451271506162, 0.046164961250146686, -0.02182922639852014, -0.039698683470673846, -0.031307336393069506], [0.05824130543086222, -0.0001756214028842354, -0.00014026742002614198, -0.02203443593091579, 0.0467527128111699], [-0.018092303113715763, 0.04240747140360668, 0.051338012457258095, 0.042514958420495054, 0.05097065725472043], [0.02044097525752784, 0.03344610949002327, -0.03333808004765434, -0.05367241755925626, -0.004732647351605358]], [[0.005381975860148783, -0.03960015831632823, 0.047129639417316155], [-0.0033366784992715226, -0.062312830072273825, 0.033997171375184584], [-0.03038170055837499, -0.07402581125664755, -0.01793359659839875], [0.010173933682494286, 0.0044125238050093905, -0.012387422880375847], [0.026557091658395482, -0.021884198501386634, 0.004450782568323687]]]}