{"weights": [[[0.0165482442115005, -0.0164979608875624, -0.03682950463373542, 0.043398900752278334, 0.034072781188831454, -0.02721468541146668, -0.019572471437376074], [0.0006482495276471948, 0.013815297417506535, -0.005795888947516512, 0.046942655272053324, -0.037421821450290355, 0.037207382523191, -0.04901958964449032], [-0.020477819812109287, -0.0204974671698218, 0.001684967202218785, -0.007362293342856732, -0.051593331883785516, -0.022708357452370417, -0.031014439424903086], [0.019509395606841128, -0.007568822735242356, 0.01543318144547494, -0.04739938048132837, -0.0035785968956033, -0.036132394423435375, -0.02602054251766185], [-0.014542479295563612, 0.04610216071627025, -0.03476812880438387, 0.029956641642889033, 0.007956919808847818, 0.03611956728309267, -0.03068521116222093]], [[-0.010271019959166145, -0.02404368066404896, -0.056155389851945785, -0.038883045782305545, 0.051817446789556465, 0.03221088510472051, -0.04554041066152755, 0.04452966813466145, 0.031207614070034216, 0.017307723278420444], [-0.010884972096285792, -0.03656102386950682, -0.014863616242747534, 0.04376418094444185, -0.008601888850407323, -0.05947895746670716, -0.027106715133424605, 0.02356595105422984, -0.04364582770349435, -0.03780012688081566], [0.012586642513431584, -0.04314398471962352, -0.026673824667529954, 0.044349782272890374, -0.002137704695608665, -0.017345773959656675, -0.03672156715624518, 0.0040735631268381004, 0.02214992425906351, -0.03508297965557848], [0.022858875942864225, -0.05107884408954824, -0.037478112650439065, 0.021498487224977058, 0.0003734424753845838, 0.02920170662220501, -0.05895562255754196, 0.0030707277607864747, 0.03348909027284837, 0.009669669013931506], [0.03587981461514094, 0.0013977091255990746, 0.015430135360281504, -0.040826634324478785, 0.011739896607953411, 0.041262782167566445, -0.048573959348330836, -0.0011698612030541275, -0.027763075764532703, 0.013862230821137477], [-0.03523903654191944, 0.05731022855541294, -0.05609019384056879, 0.04153305378068569, 0.007242831541813349, 0.0057183409908794156, -0.01906330330278486, -0.029786996167157295, -0.014305784999335635, -0.019351132558636297], [0.004630050276829771, -0.02297853920823537, 0.018150585129911717, -0.0005340190288045251, 0.01637189770822341, -0.014204354948153586, -0.0210390658764692, 0.025424678115920144, 0.0338690737892798, 0.036429898272791]], [[0.0029546185600454852, 0.03705492607711651, 0.010782108394857133, 0.03319442851763762, -0.05302417207340096], [0.02172620080041752, 0.01747414227897284, 0.018213807702006757, 0.031314980590716475, -0.048915652120986634], [0.04904812864485211, -0.02566498369588221, 0.04620299577182804, 0.04991901162003282, -0.031092956863249418], [-0.04752116043770453, -0.03151615680389415, 0.054120478156069705, 0.02355014511504742, 0.05322656119051908], [-0.01929327899203736, -0.026692717580836512, 0.000689823672362697, 0.035127042433297555, -0.03692328303876005], [-0.007721217575016794, 0.03923134712690164, 0.05670068231397611, -0.024572447245977253, 0.04947806133285014], [0.03771710109829457, 0.03469925082619208, -0.05307622716205097, 0.01612812682333729, 0.006474770233651381], [0.058499974765180256, -0.015440057380021115, -0.05112925767746388, -0.027133249378417934, 0.053426530996221994], [0.04366000451106411, -0.01713053972146157, 0.030968750213295954, 0.04154494268009973, 0.052592256628315695], [-0.03276299776456002, 0.024095176899638523, -0.04875396373322427, 0.025005832369370113, 0.03867314657377785]], [[-0.033880748979267045, -0.04461450888604708, 0.010001166088604432], [-0.04201641786586245, -0.005785136875121971, 0.00913301782554049], [0.01025500103929371, 0.029655384279202807, -0.018091123206363673], [0.02303838407645093, -0.04124770471826598, 0.07122096708786466], [-0.04432856542905919, -0.055926387824297104, -0.009486801148466721]]], "bias": [[0.031705328033764586, 0.02095030582888202, 0.009745209429504539, 0.0048752985014473395, -0.013905708553737807, -0.05513958333456885, 0.007381536433815066], [0.03782068808171624, 0.05230520349252117, 0.034054018878738664, -0.04522315749065308, 0.008031306668845262, 0.03936696564482707, -0.05950336567597513, -0.05354641749570298, 0.0092980224329631, -0.0212093651234079], [-0.0384144013865306, -0.04968309350830572, -0.002017457903355573, 0.015290706184945506, 0.012341726571236772], [-0.15882300605736127, -0.12486287522085943, 0.1687070312718611]]}